{"learner":{"attributes":{"scikit_learn":"{\"_estimator_type\": \"classifier\"}"},"feature_names":["Continuous interest rate (after tax)","Debt ratio %","Degree of Financial Leverage (DFL)","Current Liability to Current Assets","Equity to Liability","Interest Coverage Ratio (Interest expense to EBIT)","Interest Expense Ratio","Net Income to Stockholder's Equity","Net Income to Total Assets","Persistent EPS in the Last Four Seasons"],"feature_types":["float","float","float","float","float","float","float","float","float","float"],"gradient_booster":{"model":{"gbtree_model_param":{"num_parallel_tree":"1","num_trees":"51"},"iteration_indptr":[0,1,2,3,4,5,6,7,8,9,10,11,12,13,14,15,16,17,18,19,20,21,22,23,24,25,26,27,28,29,30,31,32,33,34,35,36,37,38,39,40,41,42,43,44,45,46,47,48,49,50,51],"tree_info":[0,0,0,0,0,0,0,0,0,0,0,0,0,0,0,0,0,0,0,0,0,0,0,0,0,0,0,0,0,0,0,0,0,0,0,0,0,0,0,0,0,0,0,0,0,0,0,0,0,0,0],"trees":[{"base_weights":[-9.354354E-3,1.4393277E0,-1.455358E0,1.811899E-1,1.7893418E0,-1.9371586E0,2.8068584E-1,4.5247424E-2,-4.01419E-2,3.235541E-2,6.1504964E-2,-6.841266E-2,-3.0541193E-2,3.8516797E-2,-1.8479226E-2],"categories":[],"categories_nodes":[],"categories_segments":[],"categories_sizes":[],"default_left":[0,0,0,0,0,0,0,0,0,0,0,0,0,0,0],"id":0,"left_children":[1,3,5,7,9,11,13,-1,-1,-1,-1,-1,-1,-1,-1],"loss_changes":[3.966671E3,4.162257E2,7.931946E2,3.2506274E2,9.48584E0,5.4684082E1,1.4556842E2,0E0,0E0,0E0,0E0,0E0,0E0,0E0,0E0],"parents":[2147483647,0,0,1,1,2,2,3,3,4,4,5,5,6,6],"right_children":[2,4,6,8,10,12,14,-1,-1,-1,-1,-1,-1,-1,-1],"split_conditions":[2.1017301E-1,1.4761211E-1,6.3200915E-1,8.368778E-1,1.5231128E-1,6.3159406E-1,2.1107271E-2,4.5247424E-2,-4.01419E-2,3.235541E-2,6.1504964E-2,-6.841266E-2,-3.0541193E-2,3.8516797E-2,-1.8479226E-2],"split_indices":[9,1,6,7,1,6,4,0,0,0,0,0,0,0,0],"split_type":[0,0,0,0,0,0,0,0,0,0,0,0,0,0,0],"sum_hessian":[1.8915801E3,9.4491724E2,9.466629E2,2.0599146E2,7.389258E2,7.4092084E2,2.0574207E2,1.1172418E2,9.426727E1,1.670875E1,7.2221704E2,6.9129333E2,4.962748E1,1.01000656E2,1.0474142E2],"tree_param":{"num_deleted":"0","num_feature":"10","num_nodes":"15","size_leaf_vector":"1"}},{"base_weights":[-8.470795E-3,1.4067599E0,-1.397246E0,-1.0082052E0,1.5808848E0,-1.7307885E0,2.3488955E-1,4.7521316E-2,-6.689029E-2,2.5738988E-2,5.969949E-2,-6.718612E-2,-3.5823446E-2,-2.8643312E-2,3.5976358E-2],"categories":[],"categories_nodes":[],"categories_segments":[],"categories_sizes":[],"default_left":[0,0,0,0,0,0,0,0,0,0,0,0,0,0,0],"id":1,"left_children":[1,3,5,7,9,11,13,-1,-1,-1,-1,-1,-1,-1,-1],"loss_changes":[3.7602058E3,4.0004834E2,5.2606885E2,1.5087227E2,1.2513379E2,1.303523E2,1.4672598E2,0E0,0E0,0E0,0E0,0E0,0E0,0E0,0E0],"parents":[2147483647,0,0,1,1,2,2,3,3,4,4,5,5,6,6],"right_children":[2,4,6,8,10,12,14,-1,-1,-1,-1,-1,-1,-1,-1],"split_conditions":[2.1017301E-1,9.589745E-2,2.7332915E-2,7.06647E-1,1.53538E-1,1.3692294E-1,1.6862267E-1,4.7521316E-2,-6.689029E-2,2.5738988E-2,5.969949E-2,-6.718612E-2,-3.5823446E-2,-2.8643312E-2,3.5976358E-2],"split_indices":[9,1,2,8,1,1,1,0,0,0,0,0,0,0,0],"split_type":[0,0,0,0,0,0,0,0,0,0,0,0,0,0,0],"sum_hessian":[1.9111649E3,9.4656024E2,9.6460474E2,6.333719E1,8.83223E2,8.008773E2,1.6372737E2,1.7906261E1,4.5430927E1,1.5444633E2,7.2877673E2,5.8782294E2,2.1305438E2,7.089098E1,9.283638E1],"tree_param":{"num_deleted":"0","num_feature":"10","num_nodes":"15","size_leaf_vector":"1"}},{"base_weights":[-9.868122E-3,1.3390381E0,-1.3779073E0,4.2768568E-2,1.6745257E0,-1.8190371E0,2.721853E-1,3.448603E-2,-5.157444E-2,4.466732E-2,5.914896E-2,-6.522802E-2,-4.1608926E-2,-1.263315E-2,3.2725908E-2],"categories":[],"categories_nodes":[],"categories_segments":[],"categories_sizes":[],"default_left":[0,0,0,0,0,0,0,0,0,0,0,0,0,0,0],"id":2,"left_children":[1,3,5,7,9,11,13,-1,-1,-1,-1,-1,-1,-1,-1],"loss_changes":[3.5007207E3,4.1532983E2,6.860641E2,3.0014725E2,1.5195557E1,4.0990723E1,8.888425E1,0E0,0E0,0E0,0E0,0E0,0E0,0E0,0E0],"parents":[2147483647,0,0,1,1,2,2,3,3,4,4,5,5,6,6],"right_children":[2,4,6,8,10,12,14,-1,-1,-1,-1,-1,-1,-1,-1],"split_conditions":[2.1083483E-1,1.4429967E-1,6.3200915E-1,1.9948946E-1,1.6697402E-1,6.3126945E-1,1.694531E-1,3.448603E-2,-5.157444E-2,4.466732E-2,5.914896E-2,-6.522802E-2,-4.1608926E-2,-1.263315E-2,3.2725908E-2],"split_indices":[9,1,6,9,1,6,1,0,0,0,0,0,0,0,0],"split_type":[0,0,0,0,0,0,0,0,0,0,0,0,0,0,0],"sum_hessian":[1.895043E3,9.5420465E2,9.408383E2,1.9641528E2,7.5778937E2,7.4229376E2,1.9854453E2,1.2124514E2,7.517015E1,1.1655729E2,6.412321E2,6.358292E2,1.0646456E2,1.0294293E2,9.560159E1],"tree_param":{"num_deleted":"0","num_feature":"10","num_nodes":"15","size_leaf_vector":"1"}},{"base_weights":[6.351141E-3,1.2283369E0,-1.4128422E0,1.6294662E0,-1.0837381E-1,-1.8438755E0,-1.102058E-1,5.8167435E-2,4.5921437E-2,4.410293E-2,-3.8770664E-2,-2.1510977E-2,-6.323104E-2,2.1288585E-2,-2.1689968E-2],"categories":[],"categories_nodes":[],"categories_segments":[],"categories_sizes":[],"default_left":[0,0,0,0,0,0,0,0,0,0,0,0,0,0,0],"id":3,"left_children":[1,3,5,7,9,11,13,-1,-1,-1,-1,-1,-1,-1,-1],"loss_changes":[3.3141553E3,5.5076794E2,4.96239E2,1.5355713E1,3.460038E2,1.0294189E1,8.608146E1,0E0,0E0,0E0,0E0,0E0,0E0,0E0,0E0],"parents":[2147483647,0,0,1,1,2,2,3,3,4,4,5,5,6,6],"right_children":[2,4,6,8,10,12,14,-1,-1,-1,-1,-1,-1,-1,-1],"split_conditions":[7.815568E-1,2.4766212E-2,6.3159406E-1,7.814323E-1,8.3645654E-1,8.3978456E-1,2.0603662E-2,5.8167435E-2,4.5921437E-2,4.410293E-2,-3.8770664E-2,-2.1510977E-2,-6.323104E-2,2.1288585E-2,-2.1689968E-2],"split_indices":[0,4,6,0,7,7,4,0,0,0,0,0,0,0,0],"split_type":[0,0,0,0,0,0,0,0,0,0,0,0,0,0,0],"sum_hessian":[1.9090188E3,1.0258516E3,8.8316736E2,7.8889545E2,2.3695609E2,6.632778E2,2.1988956E2,6.098616E2,1.7903384E2,1.0020143E2,1.3675465E2,8.235404E0,6.5504236E2,9.170638E1,1.2818317E2],"tree_param":{"num_deleted":"0","num_feature":"10","num_nodes":"15","size_leaf_vector":"1"}},{"base_weights":[-6.259941E-3,1.3046695E0,-1.2861736E0,-8.4696025E-1,1.4648651E0,-1.7052243E0,2.5196052E-1,4.7248106E-2,-6.2777884E-2,2.540365E-2,5.5029087E-2,-6.0127404E-2,-2.6048992E-2,3.163758E-2,-1.4629312E-2],"categories":[],"categories_nodes":[],"categories_segments":[],"categories_sizes":[],"default_left":[0,0,0,0,0,0,0,0,0,0,0,0,0,0,0],"id":4,"left_children":[1,3,5,7,9,11,13,-1,-1,-1,-1,-1,-1,-1,-1],"loss_changes":[3.1567837E3,3.216045E2,6.1402563E2,1.4763647E2,9.343103E1,4.203003E1,9.499598E1,0E0,0E0,0E0,0E0,0E0,0E0,0E0,0E0],"parents":[2147483647,0,0,1,1,2,2,3,3,4,4,5,5,6,6],"right_children":[2,4,6,8,10,12,14,-1,-1,-1,-1,-1,-1,-1,-1],"split_conditions":[2.1017301E-1,9.589745E-2,6.3200915E-1,7.06647E-1,1.53538E-1,1.8103503E-1,2.1107271E-2,4.7248106E-2,-6.2777884E-2,2.540365E-2,5.5029087E-2,-6.0127404E-2,-2.6048992E-2,3.163758E-2,-1.4629312E-2],"split_indices":[9,1,6,8,1,1,4,0,0,0,0,0,0,0,0],"split_type":[0,0,0,0,0,0,0,0,0,0,0,0,0,0,0],"sum_hessian":[1.879416E3,9.284489E2,9.509671E2,6.4038864E1,8.644101E2,7.4727124E2,2.0369589E2,1.9642874E1,4.439599E1,1.5218681E2,7.1222327E2,7.0040875E2,4.686249E1,1.0197367E2,1.0172222E2],"tree_param":{"num_deleted":"0","num_feature":"10","num_nodes":"15","size_leaf_vector":"1"}},{"base_weights":[3.461756E-3,1.2399282E0,-1.2644955E0,1.3386812E-2,1.5540651E0,-1.5901808E0,1.20837085E-1,3.2424044E-2,-4.907033E-2,4.1052688E-2,5.515171E-2,-6.0249265E-2,-3.610322E-2,-2.408349E-2,3.3565436E-2],"categories":[],"categories_nodes":[],"categories_segments":[],"categories_sizes":[],"default_left":[0,0,0,0,0,0,0,0,0,0,0,0,0,0,0],"id":5,"left_children":[1,3,5,7,9,11,13,-1,-1,-1,-1,-1,-1,-1,-1],"loss_changes":[2.9589973E3,3.681548E2,4.2061353E2,2.6913422E2,1.5669067E1,7.012781E1,1.2856255E2,0E0,0E0,0E0,0E0,0E0,0E0,0E0,0E0],"parents":[2147483647,0,0,1,1,2,2,3,3,4,4,5,5,6,6],"right_children":[2,4,6,8,10,12,14,-1,-1,-1,-1,-1,-1,-1,-1],"split_conditions":[2.1083483E-1,1.4260665E-1,5.6684697E-1,7.811749E-1,1.6697402E-1,1.3692294E-1,1.7108566E-1,3.2424044E-2,-4.907033E-2,4.1052688E-2,5.515171E-2,-6.0249265E-2,-3.610322E-2,-2.408349E-2,3.3565436E-2],"split_indices":[9,1,5,0,1,1,1,0,0,0,0,0,0,0,0],"split_type":[0,0,0,0,0,0,0,0,0,0,0,0,0,0,0],"sum_hessian":[1.8853724E3,9.545508E2,9.308216E2,1.9484091E2,7.597099E2,7.535238E2,1.7729778E2,1.1861885E2,7.622206E1,1.25260574E2,6.3444934E2,5.6028326E2,1.9324055E2,9.067634E1,8.662143E1],"tree_param":{"num_deleted":"0","num_feature":"10","num_nodes":"15","size_leaf_vector":"1"}},{"base_weights":[7.104321E-3,1.2038962E0,-1.2065617E0,1.4281559E-1,1.5199534E0,-1.5358095E0,1.6912548E-1,3.314144E-2,-4.4203673E-2,5.3811904E-2,4.143581E-2,-5.8692135E-2,-3.313194E-2,-2.1464288E-2,3.1099902E-2],"categories":[],"categories_nodes":[],"categories_segments":[],"categories_sizes":[],"default_left":[0,0,0,0,0,0,0,0,0,0,0,0,0,0,0],"id":6,"left_children":[1,3,5,7,9,11,13,-1,-1,-1,-1,-1,-1,-1,-1],"loss_changes":[2.7059287E3,3.1434802E2,4.192091E2,2.6053745E2,1.1482544E1,7.760278E1,1.0752483E2,0E0,0E0,0E0,0E0,0E0,0E0,0E0,0E0],"parents":[2147483647,0,0,1,1,2,2,3,3,4,4,5,5,6,6],"right_children":[2,4,6,8,10,12,14,-1,-1,-1,-1,-1,-1,-1,-1],"split_conditions":[2.1083483E-1,1.5092058E-1,5.6684697E-1,1.9972983E-1,7.814448E-1,1.3692294E-1,1.7108566E-1,3.314144E-2,-4.4203673E-2,5.3811904E-2,4.143581E-2,-5.8692135E-2,-3.313194E-2,-2.1464288E-2,3.1099902E-2],"split_indices":[9,1,5,9,0,1,1,0,0,0,0,0,0,0,0],"split_type":[0,0,0,0,0,0,0,0,0,0,0,0,0,0,0],"sum_hessian":[1.8609385E3,9.3698694E2,9.2395154E2,2.1537448E2,7.216125E2,7.454291E2,1.7852248E2,1.3682796E2,7.8546524E1,5.9631445E2,1.2529798E2,5.563802E2,1.890489E2,8.6151215E1,9.237126E1],"tree_param":{"num_deleted":"0","num_feature":"10","num_nodes":"15","size_leaf_vector":"1"}},{"base_weights":[-8.103053E-3,1.0893979E0,-1.2666639E0,1.4926054E0,-6.2559776E-2,-1.5336251E0,1.2290899E-1,5.3452875E-2,4.3938387E-2,3.7084535E-2,-3.64298E-2,-3.8368538E-2,-5.6904167E-2,-2.2374706E-2,3.1158283E-2],"categories":[],"categories_nodes":[],"categories_segments":[],"categories_sizes":[],"default_left":[0,0,0,0,0,0,0,0,0,0,0,0,0,0,0],"id":7,"left_children":[1,3,5,7,9,11,13,-1,-1,-1,-1,-1,-1,-1,-1],"loss_changes":[2.5437837E3,4.570298E2,3.1842297E2,9.446411E0,2.9854028E2,3.861682E1,8.670316E1,0E0,0E0,0E0,0E0,0E0,0E0,0E0,0E0],"parents":[2147483647,0,0,1,1,2,2,3,3,4,4,5,5,6,6],"right_children":[2,4,6,8,10,12,14,-1,-1,-1,-1,-1,-1,-1,-1],"split_conditions":[7.815568E-1,2.4005378E-2,2.7332915E-2,1.9394834E-2,8.37043E-1,2.6944727E-2,7.8159946E-1,5.3452875E-2,4.3938387E-2,3.7084535E-2,-3.64298E-2,-3.8368538E-2,-5.6904167E-2,-2.2374706E-2,3.1158283E-2],"split_indices":[0,4,2,4,7,4,0,0,0,0,0,0,0,0,0],"split_type":[0,0,0,0,0,0,0,0,0,0,0,0,0,0,0],"sum_hessian":[1.8396255E3,9.8276276E2,8.568627E2,7.2774286E2,2.5501988E2,7.1868677E2,1.381759E2,5.193701E2,2.0837274E2,1.1895139E2,1.3606848E2,1.851651E2,5.3352167E2,6.971401E1,6.846189E1],"tree_param":{"num_deleted":"0","num_feature":"10","num_nodes":"15","size_leaf_vector":"1"}},{"base_weights":[2.2001192E-3,1.148671E0,-1.1501583E0,1.4537069E0,7.3793575E-2,-1.5439959E0,2.4656822E-1,5.174585E-2,3.9985158E-2,3.0400991E-2,-4.4783603E-2,-2.1914236E-2,-5.440841E-2,2.776566E-2,-1.1980957E-2],"categories":[],"categories_nodes":[],"categories_segments":[],"categories_sizes":[],"default_left":[0,0,0,0,0,0,0,0,0,0,0,0,0,0,0],"id":8,"left_children":[1,3,5,7,9,11,13,-1,-1,-1,-1,-1,-1,-1,-1],"loss_changes":[2.4552837E3,3.053435E2,5.102234E2,1.1744019E1,2.369485E2,3.4676514E1,7.006612E1,0E0,0E0,0E0,0E0,0E0,0E0,0E0,0E0],"parents":[2147483647,0,0,1,1,2,2,3,3,4,4,5,5,6,6],"right_children":[2,4,6,8,10,12,14,-1,-1,-1,-1,-1,-1,-1,-1],"split_conditions":[2.1083483E-1,2.5176084E-2,6.3200915E-1,2.0495238E-2,1.9972983E-1,1.9488154E-2,2.172104E-2,5.174585E-2,3.9985158E-2,3.0400991E-2,-4.4783603E-2,-2.1914236E-2,-5.440841E-2,2.776566E-2,-1.1980957E-2],"split_indices":[9,4,6,4,9,4,4,0,0,0,0,0,0,0,0],"split_type":[0,0,0,0,0,0,0,0,0,0,0,0,0,0,0],"sum_hessian":[1.8564507E3,9.306042E2,9.2584644E2,7.246156E2,2.0598862E2,7.2212274E2,2.0372372E2,5.8073444E2,1.4388116E2,1.2980154E2,7.6187065E1,4.2221756E1,6.79901E2,1.0422962E2,9.9494095E1],"tree_param":{"num_deleted":"0","num_feature":"10","num_nodes":"15","size_leaf_vector":"1"}},{"base_weights":[2.661649E-2,1.1494052E0,-1.0717413E0,-8.8249356E-1,1.3056747E0,-1.4047045E0,1.6200721E-1,3.782664E-2,-5.867984E-2,2.3153104E-2,4.927339E-2,-5.4514855E-2,-2.8938863E-2,-2.0077605E-2,3.3948254E-2],"categories":[],"categories_nodes":[],"categories_segments":[],"categories_sizes":[],"default_left":[0,0,0,0,0,0,0,0,0,0,0,0,0,0,0],"id":9,"left_children":[1,3,5,7,9,11,13,-1,-1,-1,-1,-1,-1,-1,-1],"loss_changes":[2.2402786E3,2.8638367E2,3.7746045E2,1.10617165E2,7.326465E1,7.772742E1,1.2378858E2,0E0,0E0,0E0,0E0,0E0,0E0,0E0,0E0],"parents":[2147483647,0,0,1,1,2,2,3,3,4,4,5,5,6,6],"right_children":[2,4,6,8,10,12,14,-1,-1,-1,-1,-1,-1,-1,-1],"split_conditions":[2.1017301E-1,9.486955E-2,5.666678E-1,8.354669E-1,1.53538E-1,1.3692294E-1,1.742903E-1,3.782664E-2,-5.867984E-2,2.3153104E-2,4.927339E-2,-5.4514855E-2,-2.8938863E-2,-2.0077605E-2,3.3948254E-2],"split_indices":[9,1,5,7,1,1,1,0,0,0,0,0,0,0,0],"split_type":[0,0,0,0,0,0,0,0,0,0,0,0,0,0,0],"sum_hessian":[1.8146044E3,8.9729956E2,9.173048E2,6.374935E1,8.3355023E2,7.222468E2,1.95058E2,1.88296E1,4.4919754E1,1.5558655E2,6.779637E2,5.3127045E2,1.9097635E2,1.0281883E2,9.223917E1],"tree_param":{"num_deleted":"0","num_feature":"10","num_nodes":"15","size_leaf_vector":"1"}},{"base_weights":[-2.7310601E-3,1.0312538E0,-1.1742742E0,1.419126E0,-7.6012045E-2,-1.525375E0,2.4957517E-2,1.805373E-2,4.8670676E-2,2.9020458E-2,-4.159643E-2,1.7996141E-4,-5.2474774E-2,-2.2570172E-2,2.6174676E-2],"categories":[],"categories_nodes":[],"categories_segments":[],"categories_sizes":[],"default_left":[0,0,0,0,0,0,0,0,0,0,0,0,0,0,0],"id":10,"left_children":[1,3,5,7,9,11,13,-1,-1,-1,-1,-1,-1,-1,-1],"loss_changes":[2.1756296E3,4.0983948E2,3.5456433E2,6.2246094E0,2.655727E2,1.6619629E1,9.867972E1,0E0,0E0,0E0,0E0,0E0,0E0,0E0,0E0],"parents":[2147483647,0,0,1,1,2,2,3,3,4,4,5,5,6,6],"right_children":[2,4,6,8,10,12,14,-1,-1,-1,-1,-1,-1,-1,-1],"split_conditions":[7.815568E-1,2.4155188E-2,6.317506E-1,5.507937E-1,8.377221E-1,7.9067045E-1,7.8160435E-1,1.805373E-2,4.8670676E-2,2.9020458E-2,-4.159643E-2,1.7996141E-4,-5.2474774E-2,-2.2570172E-2,2.6174676E-2],"split_indices":[0,4,6,5,7,8,0,0,0,0,0,0,0,0,0],"split_type":[0,0,0,0,0,0,0,0,0,0,0,0,0,0,0],"sum_hessian":[1.7940259E3,9.530231E2,8.410028E2,7.05579E2,2.474441E2,6.503322E2,1.9067062E2,9.324562E0,6.962544E2,1.3683311E2,1.1061099E2,7.0101967E0,6.4332196E2,9.911944E1,9.155119E1],"tree_param":{"num_deleted":"0","num_feature":"10","num_nodes":"15","size_leaf_vector":"1"}},{"base_weights":[-1.8899782E-3,1.0999687E0,-1.0589616E0,1.3641975E0,1.0327114E-1,-1.4326596E0,2.560331E-1,4.8555918E-2,3.2989103E-2,4.3958697E-2,-3.416968E-2,1.0837968E-2,-4.9718734E-2,2.8830335E-2,-1.0957256E-2],"categories":[],"categories_nodes":[],"categories_segments":[],"categories_sizes":[],"default_left":[0,0,0,0,0,0,0,0,0,0,0,0,0,0,0],"id":11,"left_children":[1,3,5,7,9,11,13,-1,-1,-1,-1,-1,-1,-1,-1],"loss_changes":[2.0870444E3,2.3091199E2,4.497666E2,1.5774414E1,2.4469107E2,3.5873535E1,6.9718216E1,0E0,0E0,0E0,0E0,0E0,0E0,0E0,0E0],"parents":[2147483647,0,0,1,1,2,2,3,3,4,4,5,5,6,6],"right_children":[2,4,6,8,10,12,14,-1,-1,-1,-1,-1,-1,-1,-1],"split_conditions":[2.1017301E-1,2.5740847E-2,6.3200915E-1,2.0305492E-1,8.360412E-1,6.245401E-1,2.1107271E-2,4.8555918E-2,3.2989103E-2,4.3958697E-2,-3.416968E-2,1.0837968E-2,-4.9718734E-2,2.8830335E-2,-1.0957256E-2],"split_indices":[9,4,6,9,7,6,4,0,0,0,0,0,0,0,0],"split_type":[0,0,0,0,0,0,0,0,0,0,0,0,0,0,0],"sum_hessian":[1.7898488E3,8.763393E2,9.135094E2,6.924097E2,1.8392955E2,7.112854E2,2.0222401E2,5.952812E2,9.7128555E1,8.863511E1,9.529445E1,1.1183555E1,7.001018E2,9.974401E1,1.0248E2],"tree_param":{"num_deleted":"0","num_feature":"10","num_nodes":"15","size_leaf_vector":"1"}},{"base_weights":[-1.9134715E-3,9.828885E-1,-1.1125224E0,-6.837755E-2,1.3578479E0,-1.4870441E0,-6.9382265E-2,2.8119551E-2,-3.9553203E-2,3.0553872E-2,4.7639832E-2,-8.90501E-3,-5.1200796E-2,-2.0726243E-2,1.7612712E-2],"categories":[],"categories_nodes":[],"categories_segments":[],"categories_sizes":[],"default_left":[0,0,0,0,0,0,0,0,0,0,0,0,0,0,0],"id":12,"left_children":[1,3,5,7,9,11,13,-1,-1,-1,-1,-1,-1,-1,-1],"loss_changes":[1.9190118E3,3.666629E2,3.220531E2,2.4118579E2,1.202063E1,1.2657593E1,6.9654816E1,0E0,0E0,0E0,0E0,0E0,0E0,0E0,0E0],"parents":[2147483647,0,0,1,1,2,2,3,3,4,4,5,5,6,6],"right_children":[2,4,6,8,10,12,14,-1,-1,-1,-1,-1,-1,-1,-1],"split_conditions":[7.815568E-1,1.5092058E-1,6.3154703E-1,8.377221E-1,1.6145068E-1,7.815656E-1,7.8160435E-1,2.8119551E-2,-3.9553203E-2,3.0553872E-2,4.7639832E-2,-8.90501E-3,-5.1200796E-2,-2.0726243E-2,1.7612712E-2],"split_indices":[0,1,6,7,1,0,0,0,0,0,0,0,0,0,0],"split_type":[0,0,0,0,0,0,0,0,0,0,0,0,0,0,0],"sum_hessian":[1.7525579E3,9.28951E2,8.236069E2,2.4443925E2,6.845117E2,6.0571106E2,2.1789581E2,1.3459903E2,1.09840225E2,5.9278778E1,6.25233E2,8.77987E0,5.9693115E2,1.1349933E2,1.04396484E2],"tree_param":{"num_deleted":"0","num_feature":"10","num_nodes":"15","size_leaf_vector":"1"}},{"base_weights":[1.9617496E-2,1.036224E0,-9.9902636E-1,1.188603E0,-8.1697196E-1,-1.4132078E0,1.8743818E-1,4.54089E-2,1.7646763E-2,3.8963042E-2,-5.5986766E-2,1.3145063E-2,-4.89424E-2,2.6983496E-2,-8.269048E-3],"categories":[],"categories_nodes":[],"categories_segments":[],"categories_sizes":[],"default_left":[0,0,0,0,0,0,0,0,0,0,0,0,0,0,0],"id":13,"left_children":[1,3,5,7,9,11,13,-1,-1,-1,-1,-1,-1,-1,-1],"loss_changes":[1.8162288E3,2.4885101E2,4.3077234E2,7.858203E1,1.11224686E2,2.9804321E1,5.950486E1,0E0,0E0,0E0,0E0,0E0,0E0,0E0,0E0],"parents":[2147483647,0,0,1,1,2,2,3,3,4,4,5,5,6,6],"right_children":[2,4,6,8,10,12,14,-1,-1,-1,-1,-1,-1,-1,-1],"split_conditions":[2.1083483E-1,4.03706E-2,6.317506E-1,2.023258E-1,7.06647E-1,5.5796033E-1,2.039606E-2,4.54089E-2,1.7646763E-2,3.8963042E-2,-5.5986766E-2,1.3145063E-2,-4.89424E-2,2.6983496E-2,-8.269048E-3],"split_indices":[9,4,6,9,8,5,4,0,0,0,0,0,0,0,0],"split_type":[0,0,0,0,0,0,0,0,0,0,0,0,0,0,0],"sum_hessian":[1.7518617E3,8.76799E2,8.750627E2,8.1051324E2,6.62858E1,6.484907E2,2.2657193E2,6.648539E2,1.4565935E2,1.956326E1,4.672254E1,8.696901E0,6.397938E2,9.3791016E1,1.3278091E2],"tree_param":{"num_deleted":"0","num_feature":"10","num_nodes":"15","size_leaf_vector":"1"}},{"base_weights":[-2.8196576E-3,9.46924E-1,-1.0751435E0,-1.482774E-1,1.1697932E0,-1.4354966E0,-7.774404E-2,3.876677E-2,-4.501242E-2,4.49274E-2,2.540483E-2,-5.037525E-2,-3.4185592E-2,-1.8706243E-2,2.6177328E-2],"categories":[],"categories_nodes":[],"categories_segments":[],"categories_sizes":[],"default_left":[0,0,0,0,0,0,0,0,0,0,0,0,0,0,0],"id":14,"left_children":[1,3,5,7,9,11,13,-1,-1,-1,-1,-1,-1,-1,-1],"loss_changes":[1.753303E3,2.2301697E2,2.9051288E2,2.3627625E2,4.732776E1,9.989746E0,8.663455E1,0E0,0E0,0E0,0E0,0E0,0E0,0E0,0E0],"parents":[2147483647,0,0,1,1,2,2,3,3,4,4,5,5,6,6],"right_children":[2,4,6,8,10,12,14,-1,-1,-1,-1,-1,-1,-1,-1],"split_conditions":[7.815603E-1,3.0057386E-2,6.3154703E-1,8.363526E-1,8.377221E-1,6.312146E-1,7.816237E-1,3.876677E-2,-4.501242E-2,4.49274E-2,2.540483E-2,-5.037525E-2,-3.4185592E-2,-1.8706243E-2,2.6177328E-2],"split_indices":[0,3,6,7,7,6,0,0,0,0,0,0,0,0,0],"split_type":[0,0,0,0,0,0,0,0,0,0,0,0,0,0,0],"sum_hessian":[1.7195701E3,9.1196826E2,8.076018E2,1.5425905E2,7.577092E2,5.929383E2,2.1466351E2,7.3603134E1,8.0655914E1,5.5743256E2,2.0027667E2,5.3484393E2,5.8094376E1,1.3807603E2,7.658747E1],"tree_param":{"num_deleted":"0","num_feature":"10","num_nodes":"15","size_leaf_vector":"1"}},{"base_weights":[-6.004793E-4,9.386018E-1,-1.0716716E0,-1.0405616E-1,1.2990793E0,-1.4158455E0,-9.0991355E-2,2.7924757E-2,-3.8501285E-2,3.2824524E-2,4.609983E-2,-4.959633E-2,-3.647363E-2,-2.462791E-2,1.8408488E-2],"categories":[],"categories_nodes":[],"categories_segments":[],"categories_sizes":[],"default_left":[0,0,0,0,0,0,0,0,0,0,0,0,0,0,0],"id":15,"left_children":[1,3,5,7,9,11,13,-1,-1,-1,-1,-1,-1,-1,-1],"loss_changes":[1.6957017E3,3.376985E2,2.6568726E2,2.209952E2,1.1111328E1,6.7806396E0,8.262492E1,0E0,0E0,0E0,0E0,0E0,0E0,0E0,0E0],"parents":[2147483647,0,0,1,1,2,2,3,3,4,4,5,5,6,6],"right_children":[2,4,6,8,10,12,14,-1,-1,-1,-1,-1,-1,-1,-1],"split_conditions":[7.815634E-1,1.4850198E-1,6.3159406E-1,1.9948946E-1,1.6697402E-1,6.312146E-1,7.8160435E-1,2.7924757E-2,-3.8501285E-2,3.2824524E-2,4.609983E-2,-4.959633E-2,-3.647363E-2,-2.462791E-2,1.8408488E-2],"split_indices":[0,1,6,9,1,6,0,0,0,0,0,0,0,0,0],"split_type":[0,0,0,0,0,0,0,0,0,0,0,0,0,0,0],"sum_hessian":[1.6836678E3,8.97122E2,7.8654584E2,2.3066104E2,6.6646094E2,5.8188654E2,2.046593E2,1.2150378E2,1.0915726E2,9.7638725E1,5.688222E2,5.162207E2,6.566587E1,1.0219375E2,1.0246555E2],"tree_param":{"num_deleted":"0","num_feature":"10","num_nodes":"15","size_leaf_vector":"1"}},{"base_weights":[1.6731484E-3,9.0216887E-1,-1.0029058E0,-8.212539E-2,1.278013E0,-1.2567377E0,9.735007E-2,3.6420483E-2,-2.716348E-2,2.7164625E-2,4.48103E-2,-4.789974E-2,-2.8449617E-2,-1.5616246E-2,3.875522E-2],"categories":[],"categories_nodes":[],"categories_segments":[],"categories_sizes":[],"default_left":[0,0,0,0,0,0,0,0,0,0,0,0,0,0,0],"id":16,"left_children":[1,3,5,7,9,11,13,-1,-1,-1,-1,-1,-1,-1,-1],"loss_changes":[1.5098511E3,3.2569604E2,2.2045459E2,2.023268E2,1.0803711E1,3.9512512E1,8.673999E1,0E0,0E0,0E0,0E0,0E0,0E0,0E0,0E0],"parents":[2147483647,0,0,1,1,2,2,3,3,4,4,5,5,6,6],"right_children":[2,4,6,8,10,12,14,-1,-1,-1,-1,-1,-1,-1,-1],"split_conditions":[7.815568E-1,1.5231128E-1,2.7288388E-2,8.360412E-1,1.6145068E-1,1.3692294E-1,4.815782E-2,3.6420483E-2,-2.716348E-2,2.7164625E-2,4.48103E-2,-4.789974E-2,-2.8449617E-2,-1.5616246E-2,3.875522E-2],"split_indices":[0,1,2,7,1,1,3,0,0,0,0,0,0,0,0],"split_type":[0,0,0,0,0,0,0,0,0,0,0,0,0,0,0],"sum_hessian":[1.6670459E3,8.79116E2,7.879299E2,2.4314021E2,6.359758E2,6.401122E2,1.4781769E2,9.299486E1,1.5014536E2,4.919372E1,5.867821E2,4.6943784E2,1.7067433E2,9.67207E1,5.1096985E1],"tree_param":{"num_deleted":"0","num_feature":"10","num_nodes":"15","size_leaf_vector":"1"}},{"base_weights":[6.6606407E-3,8.97621E-1,-9.9277693E-1,-4.944058E-2,1.2622193E0,-1.3755915E0,-3.5923857E-2,2.372528E-2,-4.453219E-2,3.5746284E-2,4.5578223E-2,-4.7515683E-2,-2.1410814E-2,-1.6317476E-2,2.7080199E-2],"categories":[],"categories_nodes":[],"categories_segments":[],"categories_sizes":[],"default_left":[0,0,0,0,0,0,0,0,0,0,0,0,0,0,0],"id":17,"left_children":[1,3,5,7,9,11,13,-1,-1,-1,-1,-1,-1,-1,-1],"loss_changes":[1.4649033E3,3.0038513E2,2.8396185E2,2.2911275E2,8.854309E0,7.684204E0,8.250184E1,0E0,0E0,0E0,0E0,0E0,0E0,0E0,0E0],"parents":[2147483647,0,0,1,1,2,2,3,3,4,4,5,5,6,6],"right_children":[2,4,6,8,10,12,14,-1,-1,-1,-1,-1,-1,-1,-1],"split_conditions":[7.815568E-1,1.5231128E-1,6.3154703E-1,2.0194763E-1,1.8049501E-1,1.904027E-1,7.816237E-1,2.372528E-2,-4.453219E-2,3.5746284E-2,4.5578223E-2,-4.7515683E-2,-2.1410814E-2,-1.6317476E-2,2.7080199E-2],"split_indices":[0,1,6,9,1,1,0,0,0,0,0,0,0,0,0],"split_type":[0,0,0,0,0,0,0,0,0,0,0,0,0,0,0],"sum_hessian":[1.6431091E3,8.687519E2,7.7435724E2,2.4172475E2,6.2702716E2,5.527695E2,2.2158777E2,1.5202687E2,8.9697876E1,1.7134282E2,4.5568433E2,5.3699475E2,1.5774717E1,1.4478911E2,7.679866E1],"tree_param":{"num_deleted":"0","num_feature":"10","num_nodes":"15","size_leaf_vector":"1"}},{"base_weights":[1.3588863E-2,9.637863E-1,-8.896793E-1,1.1120803E0,-7.967262E-1,-1.2790815E0,2.694396E-1,4.233201E-2,1.6101165E-2,3.753085E-2,-5.0641865E-2,-1.5580054E-2,-4.5347203E-2,1.7996555E-2,-2.0735338E-2],"categories":[],"categories_nodes":[],"categories_segments":[],"categories_sizes":[],"default_left":[0,0,0,0,0,0,0,0,0,0,0,0,0,0,0],"id":18,"left_children":[1,3,5,7,9,11,13,-1,-1,-1,-1,-1,-1,-1,-1],"loss_changes":[1.398289E3,2.0816602E2,3.7733142E2,6.1157776E1,8.342466E1,2.6867493E1,4.8389793E1,0E0,0E0,0E0,0E0,0E0,0E0,0E0,0E0],"parents":[2147483647,0,0,1,1,2,2,3,3,4,4,5,5,6,6],"right_children":[2,4,6,8,10,12,14,-1,-1,-1,-1,-1,-1,-1,-1],"split_conditions":[2.1017301E-1,4.03706E-2,6.3194925E-1,2.023258E-1,8.3378035E-1,1.9488154E-2,2.7542105E-2,4.233201E-2,1.6101165E-2,3.753085E-2,-5.0641865E-2,-1.5580054E-2,-4.5347203E-2,1.7996555E-2,-2.0735338E-2],"split_indices":[9,4,6,9,7,4,4,0,0,0,0,0,0,0,0],"split_type":[0,0,0,0,0,0,0,0,0,0,0,0,0,0,0],"sum_hessian":[1.6271708E3,7.9295294E2,8.3421783E2,7.3168866E2,6.1264313E1,6.24362E2,2.0985582E2,6.05702E2,1.2598665E2,1.6190119E1,4.5074196E1,3.8773003E1,5.85589E2,1.6233356E2,4.7522255E1],"tree_param":{"num_deleted":"0","num_feature":"10","num_nodes":"15","size_leaf_vector":"1"}},{"base_weights":[3.5889035E-3,8.683578E-1,-9.7281545E-1,1.2318233E0,-4.0532462E-2,-1.3253962E0,-5.902673E-2,4.3074436E-2,2.6967084E-2,3.4224797E-2,-2.523145E-2,-8.879723E-4,-4.5753475E-2,-1.55094005E-2,2.4887368E-2],"categories":[],"categories_nodes":[],"categories_segments":[],"categories_sizes":[],"default_left":[0,0,0,0,0,0,0,0,0,0,0,0,0,0,0],"id":19,"left_children":[1,3,5,7,9,11,13,-1,-1,-1,-1,-1,-1,-1,-1],"loss_changes":[1.3472168E3,2.7957208E2,2.4136682E2,8.019348E0,1.7871626E2,1.3402405E1,6.6086914E1,0E0,0E0,0E0,0E0,0E0,0E0,0E0,0E0],"parents":[2147483647,0,0,1,1,2,2,3,3,4,4,5,5,6,6],"right_children":[2,4,6,8,10,12,14,-1,-1,-1,-1,-1,-1,-1,-1],"split_conditions":[7.815568E-1,2.3686353E-2,6.3159406E-1,2.2195905E-2,8.3620006E-1,8.3978456E-1,7.816237E-1,4.3074436E-2,2.6967084E-2,3.4224797E-2,-2.523145E-2,-8.879723E-4,-4.5753475E-2,-1.55094005E-2,2.4887368E-2],"split_indices":[0,4,6,4,7,7,0,0,0,0,0,0,0,0,0],"split_type":[0,0,0,0,0,0,0,0,0,0,0,0,0,0,0],"sum_hessian":[1.5935397E3,8.4513885E2,7.4840076E2,6.034598E2,2.4167906E2,5.397071E2,2.0869366E2,5.5840137E2,4.505841E1,9.678029E1,1.4489877E2,7.8640075E0,5.318431E2,1.3922934E2,6.9464325E1],"tree_param":{"num_deleted":"0","num_feature":"10","num_nodes":"15","size_leaf_vector":"1"}},{"base_weights":[2.1200066E-3,8.6180824E-1,-9.543543E-1,1.2176417E0,-6.73459E-2,-1.2635802E0,5.723003E-2,4.3934584E-2,3.483826E-2,3.0985955E-2,-2.6780734E-2,-4.6094038E-2,-2.6976606E-2,-1.7376266E-2,2.3187073E-2],"categories":[],"categories_nodes":[],"categories_segments":[],"categories_sizes":[],"default_left":[0,0,0,0,0,0,0,0,0,0,0,0,0,0,0],"id":20,"left_children":[1,3,5,7,9,11,13,-1,-1,-1,-1,-1,-1,-1,-1],"loss_changes":[1.2961543E3,2.7455188E2,2.3347589E2,7.2248535E0,1.6316188E2,2.3399963E1,6.2601257E1,0E0,0E0,0E0,0E0,0E0,0E0,0E0,0E0],"parents":[2147483647,0,0,1,1,2,2,3,3,4,4,5,5,6,6],"right_children":[2,4,6,8,10,12,14,-1,-1,-1,-1,-1,-1,-1,-1],"split_conditions":[7.815603E-1,2.4155188E-2,6.3189167E-1,1.9549264E-2,8.3651954E-1,6.312146E-1,7.8160435E-1,4.3934584E-2,3.483826E-2,3.0985955E-2,-2.6780734E-2,-4.6094038E-2,-2.6976606E-2,-1.7376266E-2,2.3187073E-2],"split_indices":[0,4,6,4,7,6,0,0,0,0,0,0,0,0,0],"split_type":[0,0,0,0,0,0,0,0,0,0,0,0,0,0,0],"sum_hessian":[1.5743125E3,8.291571E2,7.451554E2,5.9932587E2,2.2983124E2,5.7051E2,1.7464537E2,4.3058243E2,1.6874344E2,9.73197E1,1.3251154E2,4.7657452E2,9.393551E1,9.154213E1,8.310323E1],"tree_param":{"num_deleted":"0","num_feature":"10","num_nodes":"15","size_leaf_vector":"1"}},{"base_weights":[8.862797E-3,1.0650337E0,-7.1064895E-1,-1.3026947E0,1.1380104E0,-1.0620935E0,5.0780374E-1,-2.8761143E-2,-5.108685E-2,2.469363E-2,4.1631646E-2,-4.4121575E-2,-9.077594E-3,3.3565417E-2,-2.8958188E-2],"categories":[],"categories_nodes":[],"categories_segments":[],"categories_sizes":[],"default_left":[0,0,0,0,0,0,0,0,0,0,0,0,0,0,0],"id":21,"left_children":[1,3,5,7,9,11,13,-1,-1,-1,-1,-1,-1,-1,-1],"loss_changes":[1.163135E3,1.08645386E2,3.9038794E2,4.5807648E-1,2.0315308E1,1.3148364E2,1.338045E2,0E0,0E0,0E0,0E0,0E0,0E0,0E0,0E0],"parents":[2147483647,0,0,1,1,2,2,3,3,4,4,5,5,6,6],"right_children":[2,4,6,8,10,12,14,-1,-1,-1,-1,-1,-1,-1,-1],"split_conditions":[2.0383851E-1,6.5453336E-2,1.7199263E-1,8.366009E-1,1.4260665E-1,6.3145536E-1,8.4126675E-1,-2.8761143E-2,-5.108685E-2,2.469363E-2,4.1631646E-2,-4.4121575E-2,-9.077594E-3,3.3565417E-2,-2.8958188E-2],"split_indices":[9,1,1,7,1,6,7,0,0,0,0,0,0,0,0],"split_type":[0,0,0,0,0,0,0,0,0,0,0,0,0,0,0],"sum_hessian":[1.5285912E3,6.19195E2,9.0939624E2,1.8009983E1,6.01185E2,7.059141E2,2.0348209E2,7.0415382E0,1.0968445E1,1.0476214E2,4.9642288E2,5.4470026E2,1.6121387E2,1.5068518E2,5.2796906E1],"tree_param":{"num_deleted":"0","num_feature":"10","num_nodes":"15","size_leaf_vector":"1"}},{"base_weights":[1.4417843E-2,8.246185E-1,-9.142642E-1,1.1673033E0,-5.261032E-2,-1.2660738E0,-4.20434E-2,4.1320298E-2,2.2581453E-2,2.0737182E-2,-4.0563744E-2,-4.4880636E-2,-2.8979741E-2,-1.4862278E-2,2.5764694E-2],"categories":[],"categories_nodes":[],"categories_segments":[],"categories_sizes":[],"default_left":[0,0,0,0,0,0,0,0,0,0,0,0,0,0,0],"id":22,"left_children":[1,3,5,7,9,11,13,-1,-1,-1,-1,-1,-1,-1,-1],"loss_changes":[1.1422218E3,2.4378088E2,2.1699286E2,1.2981506E1,1.7323251E2,9.906067E0,6.478433E1,0E0,0E0,0E0,0E0,0E0,0E0,0E0,0E0],"parents":[2147483647,0,0,1,1,2,2,3,3,4,4,5,5,6,6],"right_children":[2,4,6,8,10,12,14,-1,-1,-1,-1,-1,-1,-1,-1],"split_conditions":[7.815568E-1,2.4005378E-2,6.3159406E-1,2.2195905E-2,2.0175853E-1,6.312146E-1,7.816237E-1,4.1320298E-2,2.2581453E-2,2.0737182E-2,-4.0563744E-2,-4.4880636E-2,-2.8979741E-2,-1.4862278E-2,2.5764694E-2],"split_indices":[0,4,6,4,9,6,0,0,0,0,0,0,0,0,0],"split_type":[0,0,0,0,0,0,0,0,0,0,0,0,0,0,0],"sum_hessian":[1.5160646E3,8.0974176E2,7.063228E2,5.820402E2,2.2770157E2,5.0299042E2,2.0333237E2,5.311298E2,5.0910385E1,1.4431772E2,8.338386E1,4.442186E2,5.8771828E1,1.3641283E2,6.691953E1],"tree_param":{"num_deleted":"0","num_feature":"10","num_nodes":"15","size_leaf_vector":"1"}},{"base_weights":[6.816385E-3,7.94574E-1,-9.05011E-1,-8.6661834E-1,9.9741375E-1,-1.1372682E0,4.717509E-2,3.411981E-2,-5.0428633E-2,1.4913905E-2,4.0927738E-2,-4.374455E-2,-2.5243241E-2,-2.18558E-2,2.7825331E-2],"categories":[],"categories_nodes":[],"categories_segments":[],"categories_sizes":[],"default_left":[0,0,0,0,0,0,0,0,0,0,0,0,0,0,0],"id":23,"left_children":[1,3,5,7,9,11,13,-1,-1,-1,-1,-1,-1,-1,-1],"loss_changes":[1.0790558E3,2.7243253E2,1.5403973E2,1.029703E2,8.197571E1,3.1859192E1,7.356483E1,0E0,0E0,0E0,0E0,0E0,0E0,0E0,0E0],"parents":[2147483647,0,0,1,1,2,2,3,3,4,4,5,5,6,6],"right_children":[2,4,6,8,10,12,14,-1,-1,-1,-1,-1,-1,-1,-1],"split_conditions":[7.815634E-1,1.0345557E-1,2.7288388E-2,8.3461434E-1,1.6145068E-1,1.3692294E-1,1.742903E-1,3.411981E-2,-5.0428633E-2,1.4913905E-2,4.0927738E-2,-4.374455E-2,-2.5243241E-2,-2.18558E-2,2.7825331E-2],"split_indices":[0,1,2,7,1,1,1,0,0,0,0,0,0,0,0],"split_type":[0,0,0,0,0,0,0,0,0,0,0,0,0,0,0],"sum_hessian":[1.5002365E3,8.0494586E2,6.952905E2,8.723628E1,7.177096E2,5.587949E2,1.364956E2,2.1447752E1,6.578853E1,1.9358865E2,5.241209E2,4.0481827E2,1.5397668E2,7.212551E1,6.437009E1],"tree_param":{"num_deleted":"0","num_feature":"10","num_nodes":"15","size_leaf_vector":"1"}},{"base_weights":[8.569422E-3,7.8177106E-1,-8.777969E-1,-1.1164361E-1,1.1519076E0,-1.2725204E0,-7.131937E-2,2.0976314E-2,-3.7723336E-2,3.258647E-2,4.223019E-2,-1.7516887E-2,-4.383023E-2,-1.4431688E-2,1.8446673E-2],"categories":[],"categories_nodes":[],"categories_segments":[],"categories_sizes":[],"default_left":[0,0,0,0,0,0,0,0,0,0,0,0,0,0,0],"id":24,"left_children":[1,3,5,7,9,11,13,-1,-1,-1,-1,-1,-1,-1,-1],"loss_changes":[1.0103477E3,2.6050098E2,2.1855988E2,1.6875009E2,8.449707E0,4.7476807E0,4.929977E1,0E0,0E0,0E0,0E0,0E0,0E0,0E0,0E0],"parents":[2147483647,0,0,1,1,2,2,3,3,4,4,5,5,6,6],"right_children":[2,4,6,8,10,12,14,-1,-1,-1,-1,-1,-1,-1,-1],"split_conditions":[7.815634E-1,1.5231128E-1,6.31415E-1,7.8130317E-1,1.8380606E-1,7.8157604E-1,7.816237E-1,2.0976314E-2,-3.7723336E-2,3.258647E-2,4.223019E-2,-1.7516887E-2,-4.383023E-2,-1.4431688E-2,1.8446673E-2],"split_indices":[0,1,6,0,1,0,0,0,0,0,0,0,0,0,0],"split_type":[0,0,0,0,0,0,0,0,0,0,0,0,0,0,0],"sum_hessian":[1.4722274E3,7.863718E2,6.8585565E2,2.3055927E2,5.5581256E2,4.6009048E2,2.2576518E2,1.3346718E2,9.709209E1,1.7840276E2,3.774098E2,9.899836E0,4.5019064E2,1.4352852E2,8.2236664E1],"tree_param":{"num_deleted":"0","num_feature":"10","num_nodes":"15","size_leaf_vector":"1"}},{"base_weights":[2.8170992E-3,1.038181E0,-6.5693176E-1,-4.9262604E-1,1.138049E0,-1.0056301E0,4.9404356E-1,2.9800436E-2,-5.2348178E-2,2.8140863E-2,4.065895E-2,-4.245407E-2,-1.7983027E-2,3.118966E-2,-3.0816697E-2],"categories":[],"categories_nodes":[],"categories_segments":[],"categories_sizes":[],"default_left":[0,0,0,0,0,0,0,0,0,0,0,0,0,0,0],"id":25,"left_children":[1,3,5,7,9,11,13,-1,-1,-1,-1,-1,-1,-1,-1],"loss_changes":[9.8968933E2,8.676984E1,3.556689E2,5.176157E1,8.36554E0,7.778876E1,1.2290675E2,0E0,0E0,0E0,0E0,0E0,0E0,0E0,0E0],"parents":[2147483647,0,0,1,1,2,2,3,3,4,4,5,5,6,6],"right_children":[2,4,6,8,10,12,14,-1,-1,-1,-1,-1,-1,-1,-1],"split_conditions":[2.023258E-1,9.257188E-2,1.7199263E-1,7.026694E-1,1.4260665E-1,5.6557286E-1,8.413675E-1,2.9800436E-2,-5.2348178E-2,2.8140863E-2,4.065895E-2,-4.245407E-2,-1.7983027E-2,3.118966E-2,-3.0816697E-2],"split_indices":[9,1,1,8,1,5,7,0,0,0,0,0,0,0,0],"split_type":[0,0,0,0,0,0,0,0,0,0,0,0,0,0,0],"sum_hessian":[1.4468643E3,5.629057E2,8.8395856E2,3.4233418E1,5.286723E2,6.785208E2,2.0543773E2,1.4899313E1,1.9334106E1,8.398264E1,4.4468967E2,4.4917014E2,2.2935068E2,1.580674E2,4.7370323E1],"tree_param":{"num_deleted":"0","num_feature":"10","num_nodes":"15","size_leaf_vector":"1"}},{"base_weights":[7.6526376E-5,7.4548227E-1,-8.600398E-1,-8.606481E-2,1.1130253E0,-1.089587E0,8.360001E-2,1.877012E-2,-3.4667686E-2,2.968797E-2,4.124058E-2,-4.322108E-2,-2.528217E-2,-1.913745E-2,2.2678921E-2],"categories":[],"categories_nodes":[],"categories_segments":[],"categories_sizes":[],"default_left":[0,0,0,0,0,0,0,0,0,0,0,0,0,0,0],"id":26,"left_children":[1,3,5,7,9,11,13,-1,-1,-1,-1,-1,-1,-1,-1],"loss_changes":[9.124347E2,2.3311288E2,1.432132E2,1.4009863E2,1.15234375E1,3.231653E1,4.939952E1,0E0,0E0,0E0,0E0,0E0,0E0,0E0,0E0],"parents":[2147483647,0,0,1,1,2,2,3,3,4,4,5,5,6,6],"right_children":[2,4,6,8,10,12,14,-1,-1,-1,-1,-1,-1,-1,-1],"split_conditions":[7.815634E-1,1.5231128E-1,2.7332915E-2,7.8131825E-1,1.815909E-1,5.655201E-1,1.7286937E-1,1.877012E-2,-3.4667686E-2,2.968797E-2,4.124058E-2,-4.322108E-2,-2.528217E-2,-1.913745E-2,2.2678921E-2],"split_indices":[0,1,2,0,1,5,1,0,0,0,0,0,0,0,0],"split_type":[0,0,0,0,0,0,0,0,0,0,0,0,0,0,0],"sum_hessian":[1.4211539E3,7.6141736E2,6.5973663E2,2.3362305E2,5.277943E2,5.3052734E2,1.2920927E2,1.3900116E2,9.462189E1,1.5658873E2,3.7120557E2,3.4710306E2,1.834243E2,6.1302315E1,6.790697E1],"tree_param":{"num_deleted":"0","num_feature":"10","num_nodes":"15","size_leaf_vector":"1"}},{"base_weights":[9.954658E-3,7.5421315E-1,-8.1419843E-1,1.0899943E0,-5.7885673E-2,-1.2068001E0,-1.6629416E-2,4.01415E-2,2.6256938E-2,2.9954644E-2,-2.4929704E-2,-1.3436362E-2,-4.188381E-2,-1.2874426E-2,2.2245733E-2],"categories":[],"categories_nodes":[],"categories_segments":[],"categories_sizes":[],"default_left":[0,0,0,0,0,0,0,0,0,0,0,0,0,0,0],"id":27,"left_children":[1,3,5,7,9,11,13,-1,-1,-1,-1,-1,-1,-1,-1],"loss_changes":[8.5909546E2,2.0074985E2,2.0809216E2,1.3947693E1,1.3751424E2,8.195923E0,5.3651478E1,0E0,0E0,0E0,0E0,0E0,0E0,0E0,0E0],"parents":[2147483647,0,0,1,1,2,2,3,3,4,4,5,5,6,6],"right_children":[2,4,6,8,10,12,14,-1,-1,-1,-1,-1,-1,-1,-1],"split_conditions":[7.815568E-1,2.4155188E-2,6.315028E-1,7.814448E-1,8.3645654E-1,7.8157604E-1,7.816237E-1,4.01415E-2,2.6256938E-2,2.9954644E-2,-2.4929704E-2,-1.3436362E-2,-4.188381E-2,-1.2874426E-2,2.2245733E-2],"split_indices":[0,4,6,0,7,0,0,0,0,0,0,0,0,0,0],"split_type":[0,0,0,0,0,0,0,0,0,0,0,0,0,0,0],"sum_hessian":[1.3985846E3,7.3495874E2,6.636259E2,5.1972437E2,2.1523434E2,4.4437173E2,2.1925418E2,4.0346478E2,1.1625961E2,8.991199E1,1.25322365E2,1.3262928E1,4.311088E2,1.4269528E2,7.65589E1],"tree_param":{"num_deleted":"0","num_feature":"10","num_nodes":"15","size_leaf_vector":"1"}},{"base_weights":[7.2519016E-3,9.95824E-1,-6.159668E-1,-1.1211672E0,1.0619161E0,-9.7665167E-1,4.635676E-1,-5.844952E-2,-9.02513E-3,2.3019135E-2,3.9209526E-2,-4.0713012E-2,-8.690555E-3,2.7360948E-2,-3.628257E-2],"categories":[],"categories_nodes":[],"categories_segments":[],"categories_sizes":[],"default_left":[0,0,0,0,0,0,0,0,0,0,0,0,0,0,0],"id":28,"left_children":[1,3,5,7,9,11,13,-1,-1,-1,-1,-1,-1,-1,-1],"loss_changes":[8.495026E2,7.578638E1,3.2974658E2,8.033136E0,1.723529E1,1.0021985E2,1.1152248E2,0E0,0E0,0E0,0E0,0E0,0E0,0E0,0E0],"parents":[2147483647,0,0,1,1,2,2,3,3,4,4,5,5,6,6],"right_children":[2,4,6,8,10,12,14,-1,-1,-1,-1,-1,-1,-1,-1],"split_conditions":[2.023258E-1,6.4455666E-2,1.6862267E-1,1.1671282E-1,1.4260665E-1,6.3145536E-1,8.077656E-1,-5.844952E-2,-9.02513E-3,2.3019135E-2,3.9209526E-2,-4.0713012E-2,-8.690555E-3,2.7360948E-2,-3.628257E-2],"split_indices":[9,1,1,4,1,6,8,0,0,0,0,0,0,0,0],"split_type":[0,0,0,0,0,0,0,0,0,0,0,0,0,0,0],"sum_hessian":[1.3768508E3,5.321451E2,8.447057E2,1.5627221E1,5.165179E2,6.3323114E2,2.114745E2,8.616442E0,7.010779E0,9.964973E1,4.1686816E2,4.8485135E2,1.4837982E2,1.7336473E2,3.8109768E1],"tree_param":{"num_deleted":"0","num_feature":"10","num_nodes":"15","size_leaf_vector":"1"}},{"base_weights":[-5.6654257E-3,9.725878E-1,-6.1686176E-1,1.0661256E0,-3.7090993E-1,4.901412E-1,-9.400363E-1,3.895129E-2,2.2763425E-2,3.3000838E-2,-4.935617E-2,2.9044358E-2,-3.324948E-2,-3.993485E-2,-7.653122E-3],"categories":[],"categories_nodes":[],"categories_segments":[],"categories_sizes":[],"default_left":[0,0,0,0,0,0,0,0,0,0,0,0,0,0,0],"id":29,"left_children":[1,3,5,7,9,11,13,-1,-1,-1,-1,-1,-1,-1,-1],"loss_changes":[8.0918024E2,6.579468E1,2.984501E2,1.4413879E1,5.1504375E1,1.0152994E2,1.0745221E2,0E0,0E0,0E0,0E0,0E0,0E0,0E0,0E0],"parents":[2147483647,0,0,1,1,2,2,3,3,4,4,5,5,6,6],"right_children":[2,4,6,8,10,12,14,-1,-1,-1,-1,-1,-1,-1,-1],"split_conditions":[2.023258E-1,4.242642E-2,2.039606E-2,2.5740847E-2,7.026694E-1,8.064458E-1,6.315028E-1,3.895129E-2,2.2763425E-2,3.3000838E-2,-4.935617E-2,2.9044358E-2,-3.324948E-2,-3.993485E-2,-7.653122E-3],"split_indices":[9,4,4,4,8,8,6,0,0,0,0,0,0,0,0],"split_type":[0,0,0,0,0,0,0,0,0,0,0,0,0,0,0],"sum_hessian":[1.3513562E3,5.194141E2,8.3194214E2,4.8579807E2,3.361607E1,1.8787566E2,6.4406647E2,4.0405374E2,8.174432E1,1.5039348E1,1.8576721E1,1.5091832E2,3.695734E1,4.850519E2,1.5901456E2],"tree_param":{"num_deleted":"0","num_feature":"10","num_nodes":"15","size_leaf_vector":"1"}},{"base_weights":[-3.7010263E-3,9.3683463E-1,-6.231541E-1,-5.108065E-1,1.0429025E0,-9.866798E-1,2.9789224E-1,2.9019443E-2,-5.2079637E-2,3.7220288E-2,1.4547443E-2,-4.2167664E-2,-1.0938083E-2,2.0759238E-2,-4.0390544E-2],"categories":[],"categories_nodes":[],"categories_segments":[],"categories_sizes":[],"default_left":[0,0,0,0,0,0,0,0,0,0,0,0,0,0,0],"id":30,"left_children":[1,3,5,7,9,11,13,-1,-1,-1,-1,-1,-1,-1,-1],"loss_changes":[7.743207E2,8.156723E1,2.6858463E2,5.23291E1,1.4933899E1,9.6135925E1,1.0617795E2,0E0,0E0,0E0,0E0,0E0,0E0,0E0,0E0],"parents":[2147483647,0,0,1,1,2,2,3,3,4,4,5,5,6,6],"right_children":[2,4,6,8,10,12,14,-1,-1,-1,-1,-1,-1,-1,-1],"split_conditions":[2.0383851E-1,9.486955E-2,1.6200292E-1,7.04625E-1,7.8144777E-1,6.312146E-1,8.0994165E-1,2.9019443E-2,-5.2079637E-2,3.7220288E-2,1.4547443E-2,-4.2167664E-2,-1.0938083E-2,2.0759238E-2,-4.0390544E-2],"split_indices":[9,1,1,8,0,6,8,0,0,0,0,0,0,0,0],"split_type":[0,0,0,0,0,0,0,0,0,0,0,0,0,0,0],"sum_hessian":[1.3270353E3,5.267465E2,8.002887E2,3.5699173E1,4.9104736E2,5.73761E2,2.265277E2,1.5343414E1,2.0355759E1,4.5284354E2,3.820384E1,4.1529102E2,1.5846999E2,1.8766519E2,3.8862495E1],"tree_param":{"num_deleted":"0","num_feature":"10","num_nodes":"15","size_leaf_vector":"1"}},{"base_weights":[-2.85411E-3,7.24914E-1,-7.870454E-1,-8.344858E-1,9.093506E-1,-1.1504601E0,-3.6071062E-2,2.7893946E-2,-4.818582E-2,1.3615119E-2,3.7733957E-2,-4.1183088E-2,-2.4210582E-2,-1.3426018E-2,2.2110859E-2],"categories":[],"categories_nodes":[],"categories_segments":[],"categories_sizes":[],"default_left":[0,0,0,0,0,0,0,0,0,0,0,0,0,0,0],"id":31,"left_children":[1,3,5,7,9,11,13,-1,-1,-1,-1,-1,-1,-1,-1],"loss_changes":[7.4955817E2,1.9667838E2,1.7249048E2,7.096648E1,6.1495148E1,1.0313965E1,5.119448E1,0E0,0E0,0E0,0E0,0E0,0E0,0E0,0E0],"parents":[2147483647,0,0,1,1,2,2,3,3,4,4,5,5,6,6],"right_children":[2,4,6,8,10,12,14,-1,-1,-1,-1,-1,-1,-1,-1],"split_conditions":[7.815568E-1,1.0106721E-1,6.3159406E-1,7.04625E-1,1.6145068E-1,6.312146E-1,7.816237E-1,2.7893946E-2,-4.818582E-2,1.3615119E-2,3.7733957E-2,-4.1183088E-2,-2.4210582E-2,-1.3426018E-2,2.2110859E-2],"split_indices":[0,1,6,8,1,6,0,0,0,0,0,0,0,0,0],"split_type":[0,0,0,0,0,0,0,0,0,0,0,0,0,0,0],"sum_hessian":[1.31138E3,6.801982E2,6.311818E2,7.156826E1,6.0862994E2,4.249879E2,2.061939E2,1.850867E1,5.305959E1,1.721688E2,4.3646112E2,3.7252368E2,5.2464226E1,1.3569385E2,7.0500046E1],"tree_param":{"num_deleted":"0","num_feature":"10","num_nodes":"15","size_leaf_vector":"1"}},{"base_weights":[-7.7629066E-3,7.0184857E-1,-7.7107763E-1,-7.9504126E-1,8.941284E-1,-1.1621658E0,-8.415248E-2,3.3919565E-2,-4.616409E-2,1.4337013E-2,3.7083883E-2,-7.7465707E-3,-4.0618736E-2,-1.2318388E-2,2.6798567E-2],"categories":[],"categories_nodes":[],"categories_segments":[],"categories_sizes":[],"default_left":[0,0,0,0,0,0,0,0,0,0,0,0,0,0,0],"id":32,"left_children":[1,3,5,7,9,11,13,-1,-1,-1,-1,-1,-1,-1,-1],"loss_changes":[6.9993915E2,1.9345712E2,1.671485E2,7.858598E1,5.4475677E1,1.1391296E1,5.5243176E1,0E0,0E0,0E0,0E0,0E0,0E0,0E0,0E0],"parents":[2147483647,0,0,1,1,2,2,3,3,4,4,5,5,6,6],"right_children":[2,4,6,8,10,12,14,-1,-1,-1,-1,-1,-1,-1,-1],"split_conditions":[7.815568E-1,1.0215557E-1,6.31415E-1,8.3429796E-1,1.6145068E-1,7.8157604E-1,4.815782E-2,3.3919565E-2,-4.616409E-2,1.4337013E-2,3.7083883E-2,-7.7465707E-3,-4.0618736E-2,-1.2318388E-2,2.6798567E-2],"split_indices":[0,1,6,7,1,0,3,0,0,0,0,0,0,0,0],"split_type":[0,0,0,0,0,0,0,0,0,0,0,0,0,0,0],"sum_hessian":[1.2902195E3,6.6867236E2,6.215472E2,7.575879E1,5.929136E2,3.956177E2,2.2592947E2,1.7892303E1,5.786649E1,1.7444565E2,4.1846793E2,1.315525E1,3.8246243E2,1.7176483E2,5.4164642E1],"tree_param":{"num_deleted":"0","num_feature":"10","num_nodes":"15","size_leaf_vector":"1"}},{"base_weights":[1.2933116E-3,6.983382E-1,-7.635286E-1,1.0189658E0,-5.4636512E-2,-1.165738E0,-3.1825244E-1,3.8087633E-2,2.4095858E-2,2.0726796E-2,-2.4653872E-2,-5.805761E-3,-4.088923E-2,-1.8351879E-2,1.975618E-2],"categories":[],"categories_nodes":[],"categories_segments":[],"categories_sizes":[],"default_left":[0,0,0,0,0,0,0,0,0,0,0,0,0,0,0],"id":33,"left_children":[1,3,5,7,9,11,13,-1,-1,-1,-1,-1,-1,-1,-1],"loss_changes":[6.7518427E2,1.6002417E2,1.0778143E2,1.3697632E1,8.884074E1,1.1098755E1,5.7526123E1,0E0,0E0,0E0,0E0,0E0,0E0,0E0,0E0],"parents":[2147483647,0,0,1,1,2,2,3,3,4,4,5,5,6,6],"right_children":[2,4,6,8,10,12,14,-1,-1,-1,-1,-1,-1,-1,-1],"split_conditions":[7.815568E-1,2.4595512E-2,5.6557286E-1,7.814323E-1,7.811465E-1,1.8502284E-2,4.815782E-2,3.8087633E-2,2.4095858E-2,2.0726796E-2,-2.4653872E-2,-5.805761E-3,-4.088923E-2,-1.8351879E-2,1.975618E-2],"split_indices":[0,4,5,0,0,4,3,0,0,0,0,0,0,0,0],"split_type":[0,0,0,0,0,0,0,0,0,0,0,0,0,0,0],"sum_hessian":[1.2644885E3,6.6160266E2,6.028858E2,4.6376956E2,1.978331E2,3.1591122E2,2.869746E2,3.4868613E2,1.1508344E2,9.9416725E1,9.8416374E1,1.1183306E1,3.047279E2,2.3065161E2,5.6322998E1],"tree_param":{"num_deleted":"0","num_feature":"10","num_nodes":"15","size_leaf_vector":"1"}},{"base_weights":[2.4808142E-3,6.8821186E-1,-7.687407E-1,-7.763992E-2,1.0524024E0,-9.8920566E-1,3.8412705E-2,1.6538627E-2,-3.418307E-2,2.4287079E-2,3.8069133E-2,-3.987593E-2,-1.8977098E-2,-1.8651957E-2,2.4190545E-2],"categories":[],"categories_nodes":[],"categories_segments":[],"categories_sizes":[],"default_left":[0,0,0,0,0,0,0,0,0,0,0,0,0,0,0],"id":34,"left_children":[1,3,5,7,9,11,13,-1,-1,-1,-1,-1,-1,-1,-1],"loss_changes":[6.663741E2,1.8611511E2,1.0557144E2,1.1327467E2,9.354706E0,3.605545E1,5.0951794E1,0E0,0E0,0E0,0E0,0E0,0E0,0E0,0E0],"parents":[2147483647,0,0,1,1,2,2,3,3,4,4,5,5,6,6],"right_children":[2,4,6,8,10,12,14,-1,-1,-1,-1,-1,-1,-1,-1],"split_conditions":[7.815634E-1,1.5231128E-1,2.7332915E-2,2.0194763E-1,1.6862267E-1,1.3692294E-1,7.816007E-1,1.6538627E-2,-3.418307E-2,2.4287079E-2,3.8069133E-2,-3.987593E-2,-1.8977098E-2,-1.8651957E-2,2.4190545E-2],"split_indices":[0,1,2,9,1,1,0,0,0,0,0,0,0,0,0],"split_type":[0,0,0,0,0,0,0,0,0,0,0,0,0,0,0],"sum_hessian":[1.258042E3,6.6598737E2,5.9205457E2,2.1488826E2,4.5109915E2,4.6485822E2,1.2719635E2,1.3392291E2,8.096535E1,7.577947E1,3.7531967E2,3.2543912E2,1.3941908E2,6.8037895E1,5.915846E1],"tree_param":{"num_deleted":"0","num_feature":"10","num_nodes":"15","size_leaf_vector":"1"}},{"base_weights":[6.0575586E-3,9.0679574E-1,-5.293355E-1,-2.4234932E-2,9.459595E-1,-8.3812755E-1,3.5271856E-1,3.8980965E-2,2.6222114E-2,1.21762045E-2,-3.484569E-2,4.1761347E-3,3.550752E-2],"categories":[],"categories_nodes":[],"categories_segments":[],"categories_sizes":[],"default_left":[0,0,0,0,0,0,0,0,0,0,0,0,0],"id":35,"left_children":[1,3,5,-1,7,9,11,-1,-1,-1,-1,-1,-1],"loss_changes":[5.915951E2,2.9670624E1,2.098627E2,0E0,1.476001E1,1.2710666E2,3.1678999E1,0E0,0E0,0E0,0E0,0E0,0E0],"parents":[2147483647,0,0,1,1,2,2,4,4,5,5,6,6],"right_children":[2,4,6,-1,8,10,12,-1,-1,-1,-1,-1,-1],"split_conditions":[2.023258E-1,1.4737401E-2,6.3213265E-1,-2.4234932E-2,8.33311E-1,6.295634E-1,8.4089214E-1,3.8980965E-2,2.6222114E-2,1.21762045E-2,-3.484569E-2,4.1761347E-3,3.550752E-2],"split_indices":[9,3,6,0,7,6,7,0,0,0,0,0,0],"split_type":[0,0,0,0,0,0,0,0,0,0,0,0,0],"sum_hessian":[1.2247468E3,4.563298E2,7.68417E2,1.0372244E1,4.4595755E2,5.691997E2,1.9921729E2,2.0602606E2,2.399315E2,7.6434944E1,4.9276474E2,1.5033548E2,4.8881813E1],"tree_param":{"num_deleted":"0","num_feature":"10","num_nodes":"13","size_leaf_vector":"1"}},{"base_weights":[-3.6159577E-3,6.552677E-1,-7.302259E-1,1.0431136E0,2.7399084E-2,-1.142994E0,-4.0867463E-2,3.8096484E-2,2.9900936E-2,1.8837292E-2,-3.1177478E-2,-4.02052E-2,-2.302354E-2,-1.704069E-2,1.3048134E-2],"categories":[],"categories_nodes":[],"categories_segments":[],"categories_sizes":[],"default_left":[0,0,0,0,0,0,0,0,0,0,0,0,0,0,0],"id":36,"left_children":[1,3,5,7,9,11,13,-1,-1,-1,-1,-1,-1,-1,-1],"loss_changes":[5.757321E2,1.5355228E2,1.6268198E2,3.9136963E0,1.2057967E2,5.6210327E0,4.2189156E1,0E0,0E0,0E0,0E0,0E0,0E0,0E0,0E0],"parents":[2147483647,0,0,1,1,2,2,3,3,4,4,5,5,6,6],"right_children":[2,4,6,8,10,12,14,-1,-1,-1,-1,-1,-1,-1,-1],"split_conditions":[7.815603E-1,2.2289077E-2,6.31415E-1,1.8732317E-2,7.8132826E-1,6.312146E-1,7.8160435E-1,3.8096484E-2,2.9900936E-2,1.8837292E-2,-3.1177478E-2,-4.02052E-2,-2.302354E-2,-1.704069E-2,1.3048134E-2],"split_indices":[0,4,6,4,0,6,0,0,0,0,0,0,0,0,0],"split_type":[0,0,0,0,0,0,0,0,0,0,0,0,0,0,0],"sum_hessian":[1.2005704E3,6.296801E2,5.708904E2,3.8883087E2,2.4084923E2,3.5666907E2,2.1422128E2,2.615186E2,1.2731229E2,1.5489238E2,8.595685E1,3.2806592E2,2.860315E1,1.02712685E2,1.11508606E2],"tree_param":{"num_deleted":"0","num_feature":"10","num_nodes":"15","size_leaf_vector":"1"}},{"base_weights":[-8.459264E-3,8.584823E-1,-5.343274E-1,-4.5391816E-1,9.822987E-1,4.8628104E-1,-8.405186E-1,2.084174E-2,-5.5254873E-2,3.4169756E-2,-5.68359E-3,2.5606941E-2,-3.86426E-2,-3.3236012E-2,5.8901887E-3],"categories":[],"categories_nodes":[],"categories_segments":[],"categories_sizes":[],"default_left":[0,0,0,0,0,0,0,0,0,0,0,0,0,0,0],"id":37,"left_children":[1,3,5,7,9,11,13,-1,-1,-1,-1,-1,-1,-1,-1],"loss_changes":[5.3992676E2,7.310687E1,2.3077144E2,4.9936455E1,1.0423737E1,7.457637E1,7.848047E1,0E0,0E0,0E0,0E0,0E0,0E0,0E0,0E0],"parents":[2147483647,0,0,1,1,2,2,3,3,4,4,5,5,6,6],"right_children":[2,4,6,8,10,12,14,-1,-1,-1,-1,-1,-1,-1,-1],"split_conditions":[2.023258E-1,1.0106721E-1,2.0180836E-2,7.143012E-1,7.8149164E-1,8.0994165E-1,4.751856E-2,2.084174E-2,-5.5254873E-2,3.4169756E-2,-5.68359E-3,2.5606941E-2,-3.86426E-2,-3.3236012E-2,5.8901887E-3],"split_indices":[9,1,4,8,0,8,3,0,0,0,0,0,0,0,0],"split_type":[0,0,0,0,0,0,0,0,0,0,0,0,0,0,0],"sum_hessian":[1.1823114E3,4.4615375E2,7.3615765E2,3.8233116E1,4.0792065E2,1.6975049E2,5.6640717E2,2.025005E1,1.7983067E1,4.004437E2,7.476954E0,1.4627654E2,2.3473959E1,4.9936182E2,6.7045334E1],"tree_param":{"num_deleted":"0","num_feature":"10","num_nodes":"15","size_leaf_vector":"1"}},{"base_weights":[-3.5869528E-4,8.8976747E-1,-4.9671432E-1,-3.2124743E-2,9.453074E-1,-1.0046242E0,7.374041E-2,1.869917E-2,3.5466872E-2,6.3646683E-3,-3.6992166E-2,1.0148371E-2,-3.5228483E-2],"categories":[],"categories_nodes":[],"categories_segments":[],"categories_sizes":[],"default_left":[0,0,0,0,0,0,0,0,0,0,0,0,0],"id":38,"left_children":[1,3,5,-1,7,9,11,-1,-1,-1,-1,-1,-1],"loss_changes":[5.177108E2,4.3616882E1,2.1803958E2,0E0,1.5067535E1,3.9303802E1,8.87478E1,0E0,0E0,0E0,0E0,0E0,0E0],"parents":[2147483647,0,0,1,1,2,2,4,4,5,5,6,6],"right_children":[2,4,6,-1,8,10,12,-1,-1,-1,-1,-1,-1],"split_conditions":[8.3789146E-1,6.4455666E-2,1.3692294E-1,-3.2124743E-2,1.4260665E-1,2.6475342E-2,2.3201285E-1,1.869917E-2,3.5466872E-2,6.3646683E-3,-3.6992166E-2,1.0148371E-2,-3.5228483E-2],"split_indices":[7,1,1,0,1,2,9,0,0,0,0,0,0],"split_type":[0,0,0,0,0,0,0,0,0,0,0,0,0],"sum_hessian":[1.1697705E3,4.1848996E2,7.512805E2,1.18319025E1,4.0665808E2,3.9702463E2,3.5425586E2,8.130896E1,3.2534912E2,2.5606264E1,3.7141837E2,2.9522626E2,5.902961E1],"tree_param":{"num_deleted":"0","num_feature":"10","num_nodes":"13","size_leaf_vector":"1"}},{"base_weights":[2.9109458E-3,9.0074545E-1,-4.8088348E-1,1.0652437E0,5.641585E-1,-9.836531E-1,1.5540087E-2,3.7112877E-2,7.467793E-3,3.12556E-2,-3.9919745E-2,-3.9620206E-2,-1.489222E-2,7.580128E-3,-3.531395E-2],"categories":[],"categories_nodes":[],"categories_segments":[],"categories_sizes":[],"default_left":[0,0,0,0,0,0,0,0,0,0,0,0,0,0,0],"id":39,"left_children":[1,3,5,7,9,11,13,-1,-1,-1,-1,-1,-1,-1,-1],"loss_changes":[4.9977963E2,2.170639E1,1.8663179E2,5.5423584E0,8.380119E1,3.61315E1,8.255819E1,0E0,0E0,0E0,0E0,0E0,0E0,0E0,0E0],"parents":[2147483647,0,0,1,1,2,2,3,3,4,4,5,5,6,6],"right_children":[2,4,6,8,10,12,14,-1,-1,-1,-1,-1,-1,-1,-1],"split_conditions":[8.377221E-1,6.3034755E-1,3.1943344E-2,7.814825E-1,8.351189E-1,6.311787E-1,8.1354934E-1,3.7112877E-2,7.467793E-3,3.12556E-2,-3.9919745E-2,-3.9620206E-2,-1.489222E-2,7.580128E-3,-3.531395E-2],"split_indices":[7,6,3,0,7,6,8,0,0,0,0,0,0,0,0],"split_type":[0,0,0,0,0,0,0,0,0,0,0,0,0,0,0],"sum_hessian":[1.148595E3,4.018929E2,7.46702E2,2.6850375E2,1.3338918E2,3.7049216E2,3.7620984E2,2.60405E2,8.098751E0,1.1118366E2,2.2205515E1,2.7754324E2,9.294891E1,3.1502405E2,6.11858E1],"tree_param":{"num_deleted":"0","num_feature":"10","num_nodes":"15","size_leaf_vector":"1"}},{"base_weights":[1.2119113E-3,8.89741E-1,-4.7002977E-1,-1.9359855E-1,9.8262143E-1,-9.8696005E-1,9.381359E-2,3.4005255E-2,-4.2287342E-2,2.5019802E-2,3.6204122E-2,6.2735053E-3,-3.6314644E-2,1.1025834E-2,-2.3763126E-2],"categories":[],"categories_nodes":[],"categories_segments":[],"categories_sizes":[],"default_left":[0,0,0,0,0,0,0,0,0,0,0,0,0,0,0],"id":40,"left_children":[1,3,5,7,9,11,13,-1,-1,-1,-1,-1,-1,-1,-1],"loss_changes":[4.7882205E2,4.0067474E1,2.1789174E2,4.145009E1,6.5607605E0,3.682245E1,6.556312E1,0E0,0E0,0E0,0E0,0E0,0E0,0E0,0E0],"parents":[2147483647,0,0,1,1,2,2,3,3,4,4,5,5,6,6],"right_children":[2,4,6,8,10,12,14,-1,-1,-1,-1,-1,-1,-1,-1],"split_conditions":[8.377221E-1,1.0106721E-1,1.3692294E-1,8.338813E-1,1.5757173E-1,2.6450913E-2,8.41633E-1,3.4005255E-2,-4.2287342E-2,2.5019802E-2,3.6204122E-2,6.2735053E-3,-3.6314644E-2,1.1025834E-2,-2.3763126E-2],"split_indices":[7,1,1,7,1,2,7,0,0,0,0,0,0,0,0],"split_type":[0,0,0,0,0,0,0,0,0,0,0,0,0,0,0],"sum_hessian":[1.1415609E3,3.9531116E2,7.462497E2,3.1130203E1,3.6418097E2,3.8892957E2,3.5732013E2,1.458883E1,1.6541374E1,9.254958E1,2.7163138E2,2.4837706E1,3.6409186E2,2.7732056E2,7.9999596E1],"tree_param":{"num_deleted":"0","num_feature":"10","num_nodes":"15","size_leaf_vector":"1"}},{"base_weights":[-5.9700054E-3,8.1621766E-1,-4.8653936E-1,-4.7994736E-1,9.354171E-1,-7.9272E-1,3.9909434E-1,2.8521253E-2,-4.5528967E-2,1.8780548E-2,3.4654435E-2,-3.724186E-2,-6.62105E-3,2.6382018E-2,-2.4224114E-2],"categories":[],"categories_nodes":[],"categories_segments":[],"categories_sizes":[],"default_left":[0,0,0,0,0,0,0,0,0,0,0,0,0,0,0],"id":41,"left_children":[1,3,5,7,9,11,13,-1,-1,-1,-1,-1,-1,-1,-1],"loss_changes":[4.4162146E2,6.415097E1,1.9159117E2,4.11371E1,1.146051E1,9.443359E1,7.656169E1,0E0,0E0,0E0,0E0,0E0,0E0,0E0,0E0],"parents":[2147483647,0,0,1,1,2,2,3,3,4,4,5,5,6,6],"right_children":[2,4,6,8,10,12,14,-1,-1,-1,-1,-1,-1,-1,-1],"split_conditions":[2.023258E-1,9.8164886E-2,1.7108566E-1,8.338813E-1,1.4260665E-1,6.312146E-1,8.4126675E-1,2.8521253E-2,-4.5528967E-2,1.8780548E-2,3.4654435E-2,-3.724186E-2,-6.62105E-3,2.6382018E-2,-2.4224114E-2],"split_indices":[9,1,1,7,1,6,7,0,0,0,0,0,0,0,0],"split_type":[0,0,0,0,0,0,0,0,0,0,0,0,0,0,0],"sum_hessian":[1.1156895E3,4.1130502E2,7.043844E2,3.438448E1,3.7692053E2,5.235039E2,1.808805E2,1.3566264E1,2.0818216E1,6.8383575E1,3.0853696E2,3.4744174E2,1.7606218E2,1.3535176E2,4.5528736E1],"tree_param":{"num_deleted":"0","num_feature":"10","num_nodes":"15","size_leaf_vector":"1"}},{"base_weights":[-7.1528354E-3,8.222599E-1,-4.8822474E-1,-2.6986316E-1,9.237158E-1,-8.050381E-1,3.9692652E-1,3.3653755E-2,-4.1977294E-2,1.7647406E-2,3.4284376E-2,-3.6066536E-2,-5.6622555E-3,2.6387593E-2,-2.391091E-2],"categories":[],"categories_nodes":[],"categories_segments":[],"categories_sizes":[],"default_left":[0,0,0,0,0,0,0,0,0,0,0,0,0,0,0],"id":42,"left_children":[1,3,5,7,9,11,13,-1,-1,-1,-1,-1,-1,-1,-1],"loss_changes":[4.3856955E2,4.495758E1,1.9539905E2,4.376586E1,1.2015259E1,8.324811E1,7.7137115E1,0E0,0E0,0E0,0E0,0E0,0E0,0E0,0E0],"parents":[2147483647,0,0,1,1,2,2,3,3,4,4,5,5,6,6],"right_children":[2,4,6,8,10,12,14,-1,-1,-1,-1,-1,-1,-1,-1],"split_conditions":[2.023258E-1,1.0106721E-1,1.7108566E-1,8.338813E-1,1.4260665E-1,6.315028E-1,8.4126675E-1,3.3653755E-2,-4.1977294E-2,1.7647406E-2,3.4284376E-2,-3.6066536E-2,-5.6622555E-3,2.6387593E-2,-2.391091E-2],"split_indices":[9,1,1,7,1,6,7,0,0,0,0,0,0,0,0],"split_type":[0,0,0,0,0,0,0,0,0,0,0,0,0,0,0],"sum_hessian":[1.0971459E3,4.0249603E2,6.9464984E2,3.407162E1,3.684244E2,5.1162097E2,1.8302888E2,1.4762246E1,1.9309374E1,6.436217E1,3.0406226E2,3.652323E2,1.4638866E2,1.3637839E2,4.665049E1],"tree_param":{"num_deleted":"0","num_feature":"10","num_nodes":"15","size_leaf_vector":"1"}},{"base_weights":[4.7008805E-3,5.984255E-1,-6.5148234E-1,1.0052983E0,-1.5708482E-2,-1.0932989E0,-2.0535597E-1,1.96163E-3,3.490111E-2,1.4579745E-2,-3.3782456E-2,-9.447036E-3,-3.8044717E-2,-1.4642847E-2,2.1531053E-2],"categories":[],"categories_nodes":[],"categories_segments":[],"categories_sizes":[],"default_left":[0,0,0,0,0,0,0,0,0,0,0,0,0,0,0],"id":43,"left_children":[1,3,5,7,9,11,13,-1,-1,-1,-1,-1,-1,-1,-1],"loss_changes":[4.1892462E2,1.4107175E2,1.0045375E2,6.4778748E0,9.8472916E1,4.8538513E0,4.8416527E1,0E0,0E0,0E0,0E0,0E0,0E0,0E0,0E0],"parents":[2147483647,0,0,1,1,2,2,3,3,4,4,5,5,6,6],"right_children":[2,4,6,8,10,12,14,-1,-1,-1,-1,-1,-1,-1,-1],"split_conditions":[7.815634E-1,2.2289077E-2,5.6561697E-1,2.766908E-2,7.813885E-1,1.8042844E-2,4.815782E-2,1.96163E-3,3.490111E-2,1.4579745E-2,-3.3782456E-2,-9.447036E-3,-3.8044717E-2,-1.4642847E-2,2.1531053E-2],"split_indices":[0,4,5,3,0,4,3,0,0,0,0,0,0,0,0],"split_type":[0,0,0,0,0,0,0,0,0,0,0,0,0,0,0],"sum_hessian":[1.0732896E3,5.635074E2,5.097821E2,3.385657E2,2.2494168E2,2.5539937E2,2.5438275E2,7.1859097E0,3.313798E2,1.5502826E2,6.991343E1,7.864062E0,2.4753531E2,2.0093697E2,5.344578E1],"tree_param":{"num_deleted":"0","num_feature":"10","num_nodes":"15","size_leaf_vector":"1"}},{"base_weights":[-2.8233218E-5,8.209223E-1,-4.5673642E-1,-3.5409287E-2,8.950309E-1,4.4231984E-1,-7.4992937E-1,1.924352E-2,3.4554616E-2,2.2218224E-2,-3.1484485E-2,-3.682468E-2,-6.145532E-3],"categories":[],"categories_nodes":[],"categories_segments":[],"categories_sizes":[],"default_left":[0,0,0,0,0,0,0,0,0,0,0,0,0],"id":44,"left_children":[1,3,5,-1,7,9,11,-1,-1,-1,-1,-1,-1],"loss_changes":[3.9767285E2,5.3233337E1,1.7997568E2,0E0,1.3913757E1,4.9050465E1,9.70762E1,0E0,0E0,0E0,0E0,0E0,0E0],"parents":[2147483647,0,0,1,1,2,2,4,4,5,5,6,6],"right_children":[2,4,6,-1,8,10,12,-1,-1,-1,-1,-1,-1],"split_conditions":[2.0194763E-1,6.4455666E-2,2.0180836E-2,-3.5409287E-2,1.4962058E-1,2.3201285E-1,6.312146E-1,1.924352E-2,3.4554616E-2,2.2218224E-2,-3.1484485E-2,-3.682468E-2,-6.145532E-3],"split_indices":[9,1,4,0,1,9,6,0,0,0,0,0,0],"split_type":[0,0,0,0,0,0,0,0,0,0,0,0,0],"sum_hessian":[1.0586453E3,3.781352E2,6.805101E2,1.3978585E1,3.6415662E2,1.6722311E2,5.132869E2,9.8970245E1,2.6518637E2,1.4536105E2,2.1862051E1,3.235773E2,1.8970964E2],"tree_param":{"num_deleted":"0","num_feature":"10","num_nodes":"13","size_leaf_vector":"1"}},{"base_weights":[4.30805E-3,5.853564E-1,-6.330661E-1,-8.410617E-2,9.3778133E-1,-1.10376E0,-2.446218E-1,1.4973251E-2,-2.8246272E-2,1.6398886E-2,3.42929E-2,-3.8851272E-2,-1.1161441E-3,-1.4561412E-2,1.812067E-2],"categories":[],"categories_nodes":[],"categories_segments":[],"categories_sizes":[],"default_left":[0,0,0,0,0,0,0,0,0,0,0,0,0,0,0],"id":45,"left_children":[1,3,5,7,9,11,13,-1,-1,-1,-1,-1,-1,-1,-1],"loss_changes":[3.8601236E2,1.2872032E2,9.061221E1,7.424043E1,1.0909027E1,9.081024E0,3.9198975E1,0E0,0E0,0E0,0E0,0E0,0E0,0E0,0E0],"parents":[2147483647,0,0,1,1,2,2,3,3,4,4,5,5,6,6],"right_children":[2,4,6,8,10,12,14,-1,-1,-1,-1,-1,-1,-1,-1],"split_conditions":[7.815634E-1,1.5231128E-1,5.655201E-1,7.8130317E-1,3.6167555E-2,1.916632E-1,4.815782E-2,1.4973251E-2,-2.8246272E-2,1.6398886E-2,3.42929E-2,-3.8851272E-2,-1.1161441E-3,-1.4561412E-2,1.812067E-2],"split_indices":[0,1,5,0,3,1,3,0,0,0,0,0,0,0,0],"split_type":[0,0,0,0,0,0,0,0,0,0,0,0,0,0,0],"sum_hessian":[1.0403035E3,5.4424023E2,4.9606323E2,1.879582E2,3.56282E2,2.2345372E2,2.726095E2,1.1063463E2,7.732358E1,4.8449837E1,3.0783218E2,2.1574597E2,7.7077355E0,2.209483E2,5.1661198E1],"tree_param":{"num_deleted":"0","num_feature":"10","num_nodes":"15","size_leaf_vector":"1"}},{"base_weights":[2.2746786E-2,7.109004E-1,-4.8294502E-1,-5.869272E-1,8.5657614E-1,-9.9854285E-1,-6.4717736E-3,2.9229075E-2,-4.3656375E-2,1.5362899E-2,3.4121286E-2,-3.7457887E-2,-8.628644E-3,6.9478904E-3,-3.341378E-2],"categories":[],"categories_nodes":[],"categories_segments":[],"categories_sizes":[],"default_left":[0,0,0,0,0,0,0,0,0,0,0,0,0,0,0],"id":46,"left_children":[1,3,5,7,9,11,13,-1,-1,-1,-1,-1,-1,-1,-1],"loss_changes":[3.593711E2,8.320174E1,1.462376E2,4.611943E1,2.2851685E1,2.1489319E1,6.397612E1,0E0,0E0,0E0,0E0,0E0,0E0,0E0,0E0],"parents":[2147483647,0,0,1,1,2,2,3,3,4,4,5,5,6,6],"right_children":[2,4,6,8,10,12,14,-1,-1,-1,-1,-1,-1,-1,-1],"split_conditions":[7.8147817E-1,9.589745E-2,1.3244852E-1,7.06647E-1,1.5231128E-1,5.6675434E-1,8.1354934E-1,2.9229075E-2,-4.3656375E-2,1.5362899E-2,3.4121286E-2,-3.7457887E-2,-8.628644E-3,6.9478904E-3,-3.341378E-2],"split_indices":[0,1,1,8,1,5,8,0,0,0,0,0,0,0,0],"split_type":[0,0,0,0,0,0,0,0,0,0,0,0,0,0,0],"sum_hessian":[1.0307076E3,4.3641763E2,5.9429004E2,4.373678E1,3.9268088E2,2.849002E2,3.0938983E2,1.4135818E1,2.960096E1,1.0517458E2,2.875063E2,2.5010994E2,3.4790257E1,2.550933E2,5.4296524E1],"tree_param":{"num_deleted":"0","num_feature":"10","num_nodes":"15","size_leaf_vector":"1"}},{"base_weights":[-1.0539388E-2,7.989691E-1,-4.2766553E-1,-2.8815022E-1,9.0513194E-1,-8.986011E-1,5.572442E-2,2.9106388E-2,-4.5045033E-2,2.0091714E-2,3.402379E-2,1.4783777E-2,-3.4062043E-2,8.047296E-3,-3.4621846E-2],"categories":[],"categories_nodes":[],"categories_segments":[],"categories_sizes":[],"default_left":[0,0,0,0,0,0,0,0,0,0,0,0,0,0,0],"id":47,"left_children":[1,3,5,7,9,11,13,-1,-1,-1,-1,-1,-1,-1,-1],"loss_changes":[3.433347E2,4.0166702E1,1.5280087E2,3.845686E1,8.805084E0,4.6817017E1,6.465256E1,0E0,0E0,0E0,0E0,0E0,0E0,0E0,0E0],"parents":[2147483647,0,0,1,1,2,2,3,3,4,4,5,5,6,6],"right_children":[2,4,6,8,10,12,14,-1,-1,-1,-1,-1,-1,-1,-1],"split_conditions":[8.3781195E-1,1.0106721E-1,1.3692294E-1,8.3461434E-1,1.5231128E-1,2.6450913E-2,8.1354934E-1,2.9106388E-2,-4.5045033E-2,2.0091714E-2,3.402379E-2,1.4783777E-2,-3.4062043E-2,8.047296E-3,-3.4621846E-2],"split_indices":[7,1,1,7,1,2,8,0,0,0,0,0,0,0,0],"split_type":[0,0,0,0,0,0,0,0,0,0,0,0,0,0,0],"sum_hessian":[1.0147725E3,3.447696E2,6.700029E2,3.052065E1,3.1424893E2,3.389383E2,3.3106464E2,1.458722E1,1.5933432E1,7.436136E1,2.3988757E2,2.393752E1,3.1500076E2,2.8400687E2,4.7057766E1],"tree_param":{"num_deleted":"0","num_feature":"10","num_nodes":"15","size_leaf_vector":"1"}},{"base_weights":[-2.5942177E-3,7.748651E-1,-4.3828046E-1,-3.708063E-1,8.848861E-1,-7.3437864E-1,3.7391225E-1,2.0691333E-2,-4.9151827E-2,3.193424E-2,6.889173E-3,-3.5948627E-2,-5.3018257E-3,2.4178816E-2,-2.2387447E-2],"categories":[],"categories_nodes":[],"categories_segments":[],"categories_sizes":[],"default_left":[0,0,0,0,0,0,0,0,0,0,0,0,0,0,0],"id":48,"left_children":[1,3,5,7,9,11,13,-1,-1,-1,-1,-1,-1,-1,-1],"loss_changes":[3.3683203E2,4.534337E1,1.535311E2,3.4501423E1,1.1726532E1,8.690834E1,5.9830566E1,0E0,0E0,0E0,0E0,0E0,0E0,0E0,0E0],"parents":[2147483647,0,0,1,1,2,2,3,3,4,4,5,5,6,6],"right_children":[2,4,6,8,10,12,14,-1,-1,-1,-1,-1,-1,-1,-1],"split_conditions":[2.0194763E-1,1.0106721E-1,1.7108566E-1,7.143012E-1,7.8144777E-1,6.312414E-1,8.4126675E-1,2.0691333E-2,-4.9151827E-2,3.193424E-2,6.889173E-3,-3.5948627E-2,-5.3018257E-3,2.4178816E-2,-2.2387447E-2],"split_indices":[9,1,1,8,0,6,7,0,0,0,0,0,0,0,0],"split_type":[0,0,0,0,0,0,0,0,0,0,0,0,0,0,0],"sum_hessian":[9.9239905E2,3.5612827E2,6.362708E2,3.0995497E1,3.2513278E2,4.6635077E2,1.6992003E2,1.6439907E1,1.455559E1,3.0113208E2,2.4000696E1,2.9907178E2,1.6727898E2,1.2835645E2,4.1563587E1],"tree_param":{"num_deleted":"0","num_feature":"10","num_nodes":"15","size_leaf_vector":"1"}},{"base_weights":[-1.8848887E-2,7.4574393E-1,-4.3668464E-1,9.5044124E-1,2.2571327E-1,4.1662964E-1,-7.261234E-1,2.5967496E-2,3.6124058E-2,2.4968592E-2,-1.8294947E-2,2.511754E-2,-2.0493366E-2,-3.27857E-2,-3.1512944E-4],"categories":[],"categories_nodes":[],"categories_segments":[],"categories_sizes":[],"default_left":[0,0,0,0,0,0,0,0,0,0,0,0,0,0,0],"id":49,"left_children":[1,3,5,7,9,11,13,-1,-1,-1,-1,-1,-1,-1,-1],"loss_changes":[3.1414777E2,3.6775223E1,1.5733873E2,4.373947E0,3.896334E1,5.3400475E1,8.0826996E1,0E0,0E0,0E0,0E0,0E0,0E0,0E0,0E0],"parents":[2147483647,0,0,1,1,2,2,3,3,4,4,5,5,6,6],"right_children":[2,4,6,8,10,12,14,-1,-1,-1,-1,-1,-1,-1,-1],"split_conditions":[2.0194763E-1,2.5740847E-2,2.039606E-2,4.879135E-2,8.3594406E-1,8.4126675E-1,6.3194925E-1,2.5967496E-2,3.6124058E-2,2.4968592E-2,-1.8294947E-2,2.511754E-2,-2.0493366E-2,-3.27857E-2,-3.1512944E-4],"split_indices":[9,4,4,3,7,7,6,0,0,0,0,0,0,0,0],"split_type":[0,0,0,0,0,0,0,0,0,0,0,0,0,0,0],"sum_hessian":[9.8130817E2,3.4648834E2,6.348198E2,2.4802983E2,9.845853E1,1.6067712E2,4.741427E2,9.526344E1,1.5276639E2,5.9138767E1,3.931976E1,1.2234798E2,3.832915E1,3.559557E2,1.1818703E2],"tree_param":{"num_deleted":"0","num_feature":"10","num_nodes":"15","size_leaf_vector":"1"}},{"base_weights":[-3.0183052E-3,7.8665185E-1,-3.8520658E-1,8.7551236E-1,-2.0660265E-1,9.433589E-2,-8.780473E-1,3.4480058E-2,2.1693965E-2,2.3365399E-2,-4.019191E-2,8.942978E-3,-3.323944E-2,-3.6311876E-2,-1.4072955E-2],"categories":[],"categories_nodes":[],"categories_segments":[],"categories_sizes":[],"default_left":[0,0,0,0,0,0,0,0,0,0,0,0,0,0,0],"id":50,"left_children":[1,3,5,7,9,11,13,-1,-1,-1,-1,-1,-1,-1,-1],"loss_changes":[2.902469E2,2.7864197E1,1.5324277E2,8.797623E0,2.3934418E1,5.968856E1,2.7627823E1,0E0,0E0,0E0,0E0,0E0,0E0,0E0,0E0],"parents":[2147483647,0,0,1,1,2,2,3,3,4,4,5,5,6,6],"right_children":[2,4,6,8,10,12,14,-1,-1,-1,-1,-1,-1,-1,-1],"split_conditions":[8.376104E-1,3.9007578E-2,2.6944727E-2,2.0495238E-2,7.04625E-1,8.1354934E-1,3.1943344E-2,3.4480058E-2,2.1693965E-2,2.3365399E-2,-4.019191E-2,8.942978E-3,-3.323944E-2,-3.6311876E-2,-1.4072955E-2],"split_indices":[7,4,4,4,8,8,3,0,0,0,0,0,0,0,0],"split_type":[0,0,0,0,0,0,0,0,0,0,0,0,0,0,0],"sum_hessian":[9.597067E2,3.1265225E2,6.4705444E2,2.8708685E2,2.55654E1,3.2836157E2,3.1869287E2,1.797908E2,1.0729606E2,1.3492993E1,1.2072406E1,2.843879E2,4.397367E1,2.2559267E2,9.3100204E1],"tree_param":{"num_deleted":"0","num_feature":"10","num_nodes":"15","size_leaf_vector":"1"}}]},"name":"gbtree"},"learner_model_param":{"base_score":"5.2481264E-1","boost_from_average":"1","num_class":"0","num_feature":"10","num_target":"1"},"objective":{"name":"binary:logistic","reg_loss_param":{"scale_pos_weight":"1"}}},"version":[2,0,1]}